{
    "input_layer": {
        "inputs": 784
    },
    "hidden_layers": [
        {
            "neurons": 128,
            "inputs": 784,
            "biases": [
                0.1538278926871701,
                0.1613770168195884,
                -0.11193022618215338,
                -0.05718780048608561,
                0.00710204987904088,
                -0.034656892291873076,
                -0.09997399130411254,
                0.21752371916179852,
                0.014831582629849816,
                -0.1095936338252378,
                -0.13737124572316692,
                -0.08595105836672878,
                -0.030872570548939167,
                -0.10640725081132663,
                -0.08996085525459083,
                0.04952674940349254,
                -0.05009125662286357,
                -0.1519922615544227,
                -0.02189067513322771,
                -0.0912506884640928,
                0.029997557007145993,
                0.09035043445506391,
                0.06242024136898583,
                -0.00570311431591291,
                -0.07910141808621414,
                -0.014168183879859984,
                -0.15966988332907323,
                0.07020179154832733,
                -0.05819465778570389,
                0.003183170989035461,
                -0.06863836427877636,
                0.07355440879163398,
                -0.11047411887154028,
                -0.069808694509884,
                -0.0005338839222664577,
                -0.022501633822402705,
                -0.17084087454894467,
                0.007278503484856362,
                -0.028246822086585615,
                0.018187664394285923,
                -0.11101857015367049,
                -0.030777037026998258,
                -0.09926151592749818,
                -0.0459887760789126,
                0.0305847776072935,
                0.0019401278612362811,
                0.09714430253657867,
                0.030429495857629857,
                0.019769633061688132,
                -0.03842621607757563,
                -0.06281243337755468,
                -0.0770893189553914,
                -0.005127379355866926,
                -0.1318438144757591,
                -0.05530319040553141,
                0.010660994079299534,
                0.04246338873613192,
                -0.14702097656909077,
                -0.09228334596321174,
                -0.11093159217816662,
                -0.006795836142826318,
                0.009217252609235267,
                -0.10260939180551507,
                0.018134531938875362,
                -0.038457175429567274,
                -0.089909876964625,
                -0.04319619995497508,
                -0.10317091053829053,
                0.14392301717950368,
                0.04469726332917135,
                0.012072488075420955,
                0.043137731621705096,
                -0.0868156022731845,
                -0.048976566789185695,
                0.044389952563660906,
                0.002549761921641128,
                0.03077606909421621,
                0.07427214216642548,
                -0.18723635625737933,
                0.02456925027512525,
                -0.08560512590885921,
                -0.15688193799024058,
                0.17427249557061156,
                -0.19516548890215155,
                0.004623108598532549,
                0.0020572606800733436,
                -0.014191813676926,
                -0.006680240695458345,
                -0.16923054659279663,
                -0.14845352283349214,
                0.10105112634268944,
                -0.07492928417031576,
                -0.22558947101667667,
                -0.005553355771965918,
                -0.1392802056285865,
                0.054772217304074416,
                -0.008681374068404113,
                0.04919892920271367,
                0.08972663912684575,
                -0.08580262655334568,
                0.04615837781377904,
                -0.09090731880691202,
                0.03950903403984469,
                -0.07078492553699936,
                -0.0329535913299583,
                -0.049583306493506035,
                -0.06151565086681794,
                0.1137465443116499,
                -0.1259435280231606,
                -0.12486931296871087,
                -0.04154085004643054,
                -0.17095723885786096,
                -0.021571725842496465,
                -0.021650133534617193,
                -0.2889043684038989,
                0.10050970037201572,
                -0.149605403035624,
                -0.016002324925052543,
                -0.04941121447963521,
                0.04933650174835689,
                -0.017968008381018166,
                0.08844145273736745,
                0.03734759827039937,
                0.0548091487981956,
                -0.07166545204811152,
                -0.1003858226047904,
                -0.16507669291546154,
                0.10142055541232814
            ],
            "activation": "ReLU",
            "weights": [
                [
                    0.027,
                    0.0112,
                    0.0052,
                    0.0105,
                    0.0063,
                    0.0182,
                    0.0039,
                    0.0079,
                    0.0171,
                    0.0098,
                    0.0128,
                    0.0157,
                    0.0043,
                    0.0265,
                    0.0247,
                    0.0015,
                    0.0064,
                    0.006,
                    0.0037,
                    0.0151,
                    0.0038,
                    0.0012,
                    0.0263,
                    0.0151,
                    0.0098,
                    0.0295,
                    0.0098,
                    0.0191,
                    0.0122,
                    0.0267,
                    0.0014,
                    0.0054,
                    0.015,
                    0.0142,
                    0.0234,
                    0.0063,
                    0.00690085101722939,
                    0.0025364034569063487,
                    0.020427294929330993,
                    0.02667967419506727,
                    0.010376683956080822,
                    0.004424085941330755,
                    0.03020391928061493,
                    0.02474413605745643,
                    0.017474811784535374,
                    0.008625258578906187,
                    0.0034631093894658864,
                    0.01634250860668236,
                    0.013384662006398367,
                    0.011213310223471626,
                    0.0236,
                    0.0048,
                    0.0227,
                    0.0191,
                    0.0181,
                    0.0299,
                    0.0129,
                    0.02,
                    0.022500315873474654,
                    0.014193208238501877,
                    0.0027220490769176127,
                    0.015498215398788344,
                    0.010102731241640349,
                    0.0031301033897912487,
                    0.016987027203855646,
                    0.016096972141468106,
                    0.028150535632489558,
                    0.028811950426114178,
                    0.007980146986454958,
                    0.020663643667462747,
                    0.011079072025610268,
                    0.00690011829185749,
                    0.02482046106631223,
                    0.024930058316246784,
                    0.012666826754675868,
                    0.006858768445131251,
                    0.00554206559266965,
                    0.020633582342767673,
                    0.007647959943165317,
                    0.021542644515092517,
                    0.029305848957412395,
                    0.02390086988384651,
                    0.0258,
                    0.0052,
                    0.0073,
                    0.0138,
                    0.005400695908741227,
                    0.021147267786136504,
                    0.00936646533880277,
                    0.004430306109752695,
                    -0.0003721474465901872,
                    0.008635244599834262,
                    0.006400436590215133,
                    -0.010603574848496637,
                    0.004375234019194222,
                    0.0013002778162099003,
                    -0.017360399698751333,
                    0.011975027480790008,
                    0.03673049107996972,
                    0.029460291411957447,
                    0.0420370353281851,
                    0.027147231598251914,
                    0.027312140027727614,
                    0.03635372768268028,
                    0.027420553896657485,
                    0.01181668490614539,
                    0.0016029605543627825,
                    0.02390616160844051,
                    0.01761482156880357,
                    0.024775827935811637,
                    0.012482496479776757,
                    0.0122,
                    0.0015,
                    0.024999881314562458,
                    0.019600557828753768,
                    0.02312719603765129,
                    0.014275157364910135,
                    0.008431351264372649,
                    0.0011894179528469536,
                    -0.009717102242726934,
                    -0.021356344906189557,
                    -0.025659851277039295,
                    -0.0064418255919794516,
                    -0.010353694166558422,
                    0.0006353946323467246,
                    0.010557724757674752,
                    0.02141793506144071,
                    0.06689226841928109,
                    0.08546529537827845,
                    0.07391612842482059,
                    0.050259501885319385,
                    0.029920475531450035,
                    0.02140489567764625,
                    0.03899242710333878,
                    0.028228004956142572,
                    0.017537584656707593,
                    0.024691091721860445,
                    0.002450622720321087,
                    0.02932387669046887,
                    0.0029,
                    0.0129,
                    0.0151,
                    0.003595471280865981,
                    0.022992942969813152,
                    0.0077228812378924505,
                    0.00975445435335939,
                    -0.01704012276123769,
                    -0.01590125334292777,
                    -0.004328245720628342,
                    -0.010997814428951959,
                    0.015002421144960448,
                    -0.02247259468164481,
                    -0.0020838881855779826,
                    0.046181201231430456,
                    0.05849577048420491,
                    0.03535550106160577,
                    0.03577775569949409,
                    0.042367735636506317,
                    0.03950049928243857,
                    0.05852835900708804,
                    0.03992217318411695,
                    0.03493004033819049,
                    0.07706338637101065,
                    0.06093562607259937,
                    0.037940095269558806,
                    0.013561698455927782,
                    0.011802630941094986,
                    0.022168047779087735,
                    0.009,
                    0.0021999998075424724,
                    0.020009347144603576,
                    0.0038717786152447898,
                    0.01814902375253235,
                    0.009143051210534795,
                    -0.007110532910668303,
                    -0.013997824527613974,
                    -0.0006083400654101653,
                    -0.008455891519726528,
                    -0.020686525096048215,
                    -0.033290283407364105,
                    0.044082009189527656,
                    0.06912377774901528,
                    0.08225570790993426,
                    0.036035977340814,
                    0.013179664606602949,
                    0.040013643596660424,
                    0.020149941508814682,
                    0.026043159421805493,
                    0.024921233861840163,
                    0.048885623986087944,
                    0.06305711448443367,
                    0.06726013436162141,
                    0.07231917843027225,
                    0.04879869521173688,
                    0.011234053389588623,
                    0.030611459993537475,
                    0.008200007656345591,
                    0.022824134268712794,
                    0.0039219602462576995,
                    0.023418128389871125,
                    0.00199360748627697,
                    -0.0049810835870087704,
                    -0.0065421374251038635,
                    -0.008110366491795485,
                    -0.008528424914053692,
                    0.002542765522226459,
                    0.016248759805828506,
                    0.07266195106341325,
                    0.10258740400124848,
                    0.11418489443941958,
                    0.1259131679327043,
                    0.03664659870721704,
                    0.09807616646147423,
                    0.05825920180263101,
                    0.0627351189091482,
                    0.05844314856287555,
                    0.05909545846019137,
                    0.03823733053357754,
                    0.0582645733207758,
                    0.05485551717259491,
                    0.06620309602769117,
                    0.05213472114924976,
                    0.02124319600318465,
                    0.016134234792117154,
                    0.01780003111408523,
                    0.017329035631759797,
                    0.004184861532756716,
                    0.007112002368553557,
                    -0.02524377220394425,
                    0.0013214544907851225,
                    -0.03769819187195185,
                    -0.048909898131309595,
                    -0.017391104752124884,
                    -0.007902727160066084,
                    0.02530036752796065,
                    0.07495092847943181,
                    0.14775689853286697,
                    0.18346477531376185,
                    0.16525716605480686,
                    0.10212675357842625,
                    0.11169542134404149,
                    0.06354934516647505,
                    0.008774919197772428,
                    0.00016355653330542218,
                    0.02564892531674501,
                    0.007175663284974981,
                    0.010375167231946097,
                    0.04138241215916661,
                    0.07536703777322445,
                    0.04821605151189717,
                    0.027220720057158556,
                    0.008847413401940014,
                    0.0175875307448494,
                    0.013479231849156802,
                    0.0024652393686674184,
                    0.02293550002859732,
                    -0.008300389705818857,
                    -0.026915877069487344,
                    -0.02930549586482416,
                    -0.018345891735487695,
                    -0.010609990791242934,
                    -0.007574371760170645,
                    0.015704304299945585,
                    0.09917452894678071,
                    0.16294523210085043,
                    0.2292734543160909,
                    0.08078537038361511,
                    -0.017017884277605744,
                    -0.03071356583617443,
                    -0.01791468032072669,
                    0.0035301470644214464,
                    0.008668616046962865,
                    -0.04142505494156909,
                    -0.05209676678829906,
                    0.011761390880509244,
                    0.034292098409677,
                    0.07125783848292064,
                    0.06828928979089716,
                    0.036992522278624776,
                    0.005267324400508845,
                    0.028284140995962923,
                    0.02820046207933956,
                    0.004440418669356318,
                    0.01727302025794837,
                    0.0031856371846186084,
                    -0.010266537199455151,
                    -0.019498658126078077,
                    -0.028580984535799832,
                    0.01678186428090139,
                    0.003158461317044648,
                    0.018256275699106785,
                    0.11101694845355767,
                    0.15226213618177228,
                    0.1191867579055417,
                    -0.060399243567337044,
                    -0.12287663005421119,
                    -0.09429919348688356,
                    -0.05359706321864731,
                    -0.014932060471452095,
                    -0.04794950572269844,
                    -0.05628425966538991,
                    -0.08941926845584701,
                    -0.03523747192889979,
                    -0.006077977552603355,
                    0.01793760051101456,
                    0.023304736592078285,
                    0.012126170229845828,
                    0.006754610571376073,
                    0.004351121211314136,
                    0.006580826457678962,
                    0.027760465300847446,
                    0.00479542884791792,
                    0.012991702205347011,
                    -0.025076946552038917,
                    -0.007193591147773353,
                    -0.011071254529380013,
                    -0.0015249377374423909,
                    0.020966249683554473,
                    0.06542988580486819,
                    0.10290191095869787,
                    0.09245509773145802,
                    -0.03493053128006684,
                    -0.15943796401994012,
                    -0.16563322906925,
                    -0.07245874965026193,
                    -0.005402984912729321,
                    -0.0056604488192672974,
                    -0.04414332958383102,
                    -0.12335987103539112,
                    -0.11271713662383145,
                    -0.10949640949961599,
                    -0.05325027596630213,
                    0.0032276608629472256,
                    0.02242419703823701,
                    0.02132541603274846,
                    0.02576179715980256,
                    0.007242470948130969,
                    0.021400274210684078,
                    0.010507933667714882,
                    0.02386218373206827,
                    0.02387047862771943,
                    -0.008424522458327869,
                    0.01557374648937993,
                    0.02833448326956244,
                    0.021950464628430366,
                    0.06352174439057044,
                    0.08444250493644796,
                    0.07146090398917734,
                    -0.004931837304073475,
                    -0.12339605760482643,
                    -0.1829434537518716,
                    -0.18449278334117578,
                    -0.12312061115120863,
                    -0.03857164815152764,
                    -0.009550246887860365,
                    -0.0823422306440151,
                    -0.0846971689144873,
                    -0.13060967482221728,
                    -0.09546968767641942,
                    -0.030861279727251358,
                    -0.004472781898782408,
                    -0.00042998472543400655,
                    0.014291646063986746,
                    0.025400815004283452,
                    0.0174,
                    0.02924649195230341,
                    0.008873342032177633,
                    0.029349429727471645,
                    0.019225603215707297,
                    -0.0013022404631428616,
                    0.036655869418960985,
                    0.05578626176587995,
                    0.015097801241188737,
                    0.05249821121842155,
                    0.06287408890869975,
                    0.0020322312117321967,
                    -0.09971087526380061,
                    -0.16862213996713266,
                    -0.15857700722509732,
                    -0.15958736543267002,
                    -0.145328788831215,
                    -0.06695867989830231,
                    -0.06418310990828745,
                    -0.0820213570737109,
                    -0.08386832778037918,
                    -0.08057039085335406,
                    -0.06705276934123525,
                    -0.019209531265280175,
                    0.0024362926999436283,
                    0.01905512680659493,
                    0.012303602592175968,
                    0.012600219836680112,
                    0.0059418106851538855,
                    0.01651702728688864,
                    0.011593379190304893,
                    0.02896405310387151,
                    0.018268051686333876,
                    0.026137375287691438,
                    0.02270076103333301,
                    0.03421248910728502,
                    0.024523677945427085,
                    0.031543538823728734,
                    -0.008552500027242713,
                    -0.08124529137362908,
                    -0.14426877602769636,
                    -0.17920069992342427,
                    -0.14695200799896244,
                    -0.055793482812357346,
                    -0.06855329387881835,
                    -0.0799923134413673,
                    -0.07655051262920237,
                    -0.09671661111987494,
                    -0.05187404298370443,
                    -0.03933129603642419,
                    -0.01959421695381184,
                    -0.002072596337705182,
                    0.03330543783718916,
                    0.011691334505549586,
                    0.011331044688572203,
                    0.0079,
                    0.0075464469058307195,
                    0.01215864922997014,
                    0.016544508623294735,
                    0.024908975441699913,
                    0.012600974856732389,
                    0.006012975556225485,
                    -0.010293058353704634,
                    0.02417161321519374,
                    0.012181149227671738,
                    -0.029202149289918336,
                    0.00972360846368408,
                    -0.030542067179563745,
                    -0.07690919394564406,
                    -0.0983828667656725,
                    -0.10713701470407781,
                    -0.038318008767448355,
                    -0.059529077115730314,
                    -0.04266740750735746,
                    -0.04570270129686451,
                    -0.09925098309237425,
                    -0.049259555695303714,
                    -0.013651691857855022,
                    -0.007249133093971499,
                    0.0160575077160384,
                    0.01250540594166671,
                    0.007733843911433576,
                    0.013118187226766614,
                    0.028792996615928317,
                    0.020000076097205718,
                    0.012022457821730862,
                    0.004620949709401486,
                    0.02661689260992768,
                    0.021309464139336064,
                    0.003683986167540594,
                    -0.055252174487493436,
                    -0.036984572333998204,
                    -0.027046703587657747,
                    -0.01634850326370334,
                    0.022213108755267406,
                    0.012025985997696902,
                    -0.06066170691061651,
                    -0.08757063531760127,
                    -0.04921135266451025,
                    -0.047531055362772114,
                    -0.06480617715334078,
                    -0.07303922075342092,
                    -0.0564633163445122,
                    -0.054270126000643897,
                    -0.025404283525153917,
                    -0.00042764430236620643,
                    0.004699760154330601,
                    0.009170380451216192,
                    0.02129313678745369,
                    0.0011632075958925793,
                    -0.0003320424340202803,
                    0.01040497303982434,
                    0.0283,
                    0.019742511151286234,
                    0.023634680319977064,
                    0.011644304201499435,
                    0.01143789951884373,
                    0.006794327867621929,
                    -0.05363902411763737,
                    -0.06702277220206533,
                    -0.05256401759214794,
                    -0.06251827104831761,
                    -0.03171420376051922,
                    -0.06162317339076367,
                    -0.11345275682584029,
                    -0.10937525334478126,
                    -0.06803879917336401,
                    -0.07386063744473723,
                    -0.08113030171183538,
                    -0.05400725148366678,
                    -0.022387177678602314,
                    -0.030424150697485684,
                    -0.02510716738965877,
                    0.012467877009980463,
                    0.025020242797793017,
                    0.022153973740073597,
                    0.013704696597947088,
                    0.015222399158962943,
                    0.025568863012602423,
                    0.011487597386442578,
                    0.0017,
                    0.009600133720056673,
                    0.01941298291532675,
                    0.012067208009894954,
                    0.012997352492217607,
                    -0.0029359217238270705,
                    -0.04547694277258964,
                    -0.04461586922078975,
                    -0.0667909288238432,
                    -0.09489161988215052,
                    -0.0814526394044077,
                    -0.10664114045624781,
                    -0.15986335142721167,
                    -0.1734613079229257,
                    -0.08866773862474815,
                    -0.07070937257354691,
                    -0.051961079205751964,
                    0.00010150124825342426,
                    -0.021902555187748952,
                    -0.045593781695013796,
                    -0.0028745483700327082,
                    0.0550377049607843,
                    0.048264461411053686,
                    0.022245992616724608,
                    -0.00702764142558072,
                    0.007265409171510486,
                    0.019015855504477798,
                    0.028311316393344173,
                    0.0089,
                    0.025200458436632583,
                    0.0257258028023088,
                    0.032372324689250435,
                    0.03338271975031793,
                    0.014962930870361648,
                    0.013624563018033286,
                    -0.018075647946876293,
                    -0.01895378071383978,
                    -0.08020484930827504,
                    -0.06280068445523539,
                    -0.09553942408190608,
                    -0.1361363979670268,
                    -0.16359603350252067,
                    -0.08586955607473315,
                    -0.008616512226947695,
                    0.017273195537253212,
                    0.0017243709911623026,
                    -0.001233407370452052,
                    -0.032025890112218874,
                    0.03115011665474725,
                    0.04958397508660544,
                    0.031169367371196327,
                    -0.010322445894602654,
                    0.021457210491801892,
                    0.00998795329489754,
                    0.025594394622737996,
                    0.02642544294764504,
                    0.0026,
                    0.01669980720345366,
                    0.018738585145936165,
                    0.02483829747894496,
                    0.027481185628267416,
                    0.03396441155404846,
                    0.011839100469516216,
                    0.00680796777394358,
                    0.03158199833966797,
                    0.025894322852780392,
                    0.004808149068699059,
                    0.006510892389381757,
                    0.008061963850224818,
                    -0.002944674303717788,
                    0.01688266633498214,
                    0.07809441308587993,
                    0.03101170115949224,
                    0.020784516427014975,
                    0.023477912143471998,
                    0.04083054938668826,
                    0.032076242427671584,
                    0.00820941102671489,
                    0.022975640159151607,
                    0.002106492180719459,
                    0.020940852639925886,
                    0.004759509055645897,
                    0.0153016952447839,
                    0.013300029962453486,
                    0.03,
                    0.019199536671138093,
                    0.006693446938488011,
                    0.011098447864655468,
                    0.023912293788605946,
                    0.03942127781378652,
                    0.03354473017617863,
                    0.021081827173307217,
                    0.042100401302800725,
                    0.045487995022462493,
                    0.07557037861060895,
                    0.10032906117078372,
                    0.11035014686390465,
                    0.11122439965379276,
                    0.11446974327451032,
                    0.11881226235489069,
                    0.1041845872008844,
                    0.057138129800284015,
                    0.07070058728611686,
                    0.035332223596992875,
                    0.03798244612677054,
                    0.02292295034535285,
                    0.02778061515010411,
                    0.02701086136044829,
                    0.005949363298081972,
                    0.011146145797517468,
                    0.026922715154547264,
                    0.017900085216782192,
                    0.0098,
                    0.01879990953482889,
                    0.01835857203500862,
                    0.019063724518924876,
                    0.013333303488374297,
                    0.012105381372617114,
                    0.019606434451842042,
                    0.03498014947913964,
                    0.04049603928805384,
                    0.05993700490285856,
                    0.08961801860882286,
                    0.13451330982770218,
                    0.11373163350156672,
                    0.10542078538913859,
                    0.10155915312880298,
                    0.15396481614444346,
                    0.15829848026845939,
                    0.13842601320442535,
                    0.07822975759450577,
                    0.07965570460645359,
                    0.033933031724003825,
                    0.029135956595255065,
                    0.05307205276708067,
                    0.04138904502802422,
                    -0.0004980353285967367,
                    0.011513703357648801,
                    0.02365988739444697,
                    0.02610015732329148,
                    0.0185,
                    0.0111,
                    0.00666529254174569,
                    0.0035207482973902706,
                    0.024895204394292242,
                    -0.00561193238044499,
                    0.012214663947108809,
                    0.00540648780695522,
                    0.034931248963132024,
                    0.07628351825682969,
                    0.09130461843389073,
                    0.11574157617161362,
                    0.09430404437058447,
                    0.0596818814772361,
                    0.0783247089101353,
                    0.12654632494418955,
                    0.10658531610484251,
                    0.1184896905091567,
                    0.07886793084706906,
                    0.032153228913148986,
                    0.01611080338782177,
                    0.02825734193888925,
                    0.023616607570561325,
                    0.017243344547817098,
                    0.01928117143486977,
                    0.01886210630579666,
                    0.015954379308012634,
                    0.0076,
                    0.0091,
                    0.0218,
                    0.025517540359932908,
                    0.008421848777857892,
                    0.025435038946989855,
                    -0.004385876313595107,
                    -0.004443453872583394,
                    0.033473539677308026,
                    0.022327403962656176,
                    0.04642027312007173,
                    0.04723800261350477,
                    0.05620915677151081,
                    0.06849322273639673,
                    0.06277070570874889,
                    0.06474888489991032,
                    0.08131317915043276,
                    0.04466804656825267,
                    0.08574097213036919,
                    0.054036430092088,
                    0.012457167159775549,
                    0.021380364783777063,
                    0.01771153228004598,
                    0.0065305217825575735,
                    0.030680862283279868,
                    0.004372382406136503,
                    0.007021265040864086,
                    0.0042,
                    0.028,
                    0.0198,
                    0.0098,
                    0.026023620682823375,
                    0.006831811504151641,
                    0.025960748045848088,
                    0.011207341241018524,
                    0.017651793808240675,
                    0.019100785779862878,
                    0.02712305574851765,
                    0.02078411538548692,
                    0.006688083868474194,
                    0.012136049843108385,
                    0.04506193187744439,
                    0.03515803962439633,
                    0.021524250976776602,
                    0.05581686521350031,
                    0.04474157052686139,
                    0.02605187990490801,
                    0.04163775374052941,
                    0.031091648822574668,
                    0.017217402420198705,
                    0.027066850691405357,
                    0.03724524689100271,
                    0.015359128309580172,
                    0.020579916934991727,
                    0.0191,
                    0.0088,
                    0.0253,
                    0.0031,
                    0.0075,
                    0.0128,
                    0.004,
                    0.02640015224111775,
                    -0.00035550950102261223,
                    0.007861359835131237,
                    0.007349689959514448,
                    0.030498281613070853,
                    0.025676447269787794,
                    0.016163856622069345,
                    0.027482465915780453,
                    0.013513549446324085,
                    0.03327985369764896,
                    0.03254838583657509,
                    0.039925437548498664,
                    0.028164642103428717,
                    0.02999403925489952,
                    0.03335426733491176,
                    0.032347582787238406,
                    0.014893891582245536,
                    0.013864597461498268,
                    0.007025819178889146,
                    0.030013310217199517,
                    0.0047,
                    0.0036,
                    0.0275,
                    0.0138,
                    0.0092,
                    0.0038,
                    0.0089,
                    0.0089,
                    0.0111,
                    0.0266,
                    0.017590301773945296,
                    0.003094999530711228,
                    0.017854447146234517,
                    0.00396074785188343,
                    0.004341851074000212,
                    0.027564158550678102,
                    0.010273862260056664,
                    0.008847765546182176,
                    0.02042433630143536,
                    0.027014550148858552,
                    0.01154545004008058,
                    0.0034400122461182973,
                    0.01602527955144163,
                    0.012181084890613859,
                    0.0072342043581037005,
                    0.010404182077105778,
                    0.02895112074069928,
                    0.005580688699964048,
                    0.0089,
                    0.0255,
                    0.0163,
                    0.0231
                ],
                [
                    0.0092,
                    0.0175,
                    0.0199,
                    0.0127,
                    0.0178,
                    0.0176,
                    0.0174,
                    0.0096,
                    0.0033,
                    0.0067,
                    0.0227,
                    0.0274,
                    0.0083,
                    0.0272,
                    0.0211,
                    0.0135,
                    0.0253,
                    0.0131,
                    0.0051,
                    0.0159,
                    0.0225,
                    0.0269,
                    0.0115,
                    0.0044,
                    0.0026,
                    0.0252,
                    0.0133,
                    0.008,
                    0.0084,
                    0.0206,
                    0.0263,
                    0.0201,
                    0.0278,
                    0.0199,
                    0.01,
                    0.0255,
                    0.001558851008507899,
                    0.0031950686126783964,
                    0.009787710062761253,
                    0.011527287276611838,
                    0.02646723714061276,
                    0.02258406663397131,
                    0.02210510298202961,
                    0.010418602410577675,
                    0.01981435643549302,
                    0.01791523489197133,
                    0.015418007482782447,
                    0.014556778653030438,
                    0.017208729658982215,
                    0.007441430643968992,
                    0.004197355211966285,
                    0.0074,
                    0.0195,
                    0.0094,
                    0.0068,
                    0.013,
                    0.019,
                    0.0129,
                    0.0031,
                    0.003269787971890123,
                    0.016557135847753274,
                    0.007096643495346045,
                    0.017469022426349918,
                    0.027161955461972354,
                    0.0062595598298679535,
                    0.0025992634926398864,
                    0.003151563935290615,
                    0.012433509795219814,
                    0.008807746271429825,
                    0.011631322130968855,
                    0.010429527549564239,
                    0.01613800662086237,
                    0.02487716871275092,
                    0.01771170749851667,
                    0.016380994048890162,
                    0.012246726714486804,
                    0.017381478980432154,
                    0.023566226109545448,
                    0.014312441150889001,
                    0.02892549120160059,
                    0.01854075023474798,
                    0.014155779568725104,
                    0.0019,
                    0.0255,
                    0.0246,
                    0.0056,
                    0.0095,
                    0.0035124892957045743,
                    0.002167473261240671,
                    0.013933268664837828,
                    0.0242805815860639,
                    0.018290506706438815,
                    0.021631795140951305,
                    0.0012693228152801232,
                    -0.0012743617700383709,
                    -0.015580093365842032,
                    -0.011621874480692266,
                    -0.022284079410382934,
                    -0.012294359679057135,
                    0.0032614172918787473,
                    0.004218270842494533,
                    0.005878334499890309,
                    -0.008731005577131289,
                    0.012205609872709773,
                    0.014543212949423234,
                    0.025051981258300344,
                    0.0016088126710157818,
                    0.01419502347332177,
                    0.004252099962264304,
                    0.017631709214202776,
                    0.008024788286733246,
                    0.0025,
                    0.0138,
                    0.0211,
                    0.0111,
                    0.02145342014689302,
                    0.01793258374649387,
                    0.007445081994792464,
                    0.008984789443952023,
                    0.008540319157246373,
                    -0.01608926104291554,
                    0.0034621066029966487,
                    -0.018666411476556295,
                    -0.01558916353040966,
                    -0.034255296177893614,
                    -0.03748354249231541,
                    -0.023418446043350992,
                    -0.03790733350893644,
                    -0.03282147044174817,
                    -0.03575605218459512,
                    -0.02382726045523814,
                    0.003461157350897422,
                    -0.014652260454976264,
                    0.01754038349057568,
                    -0.018395630551683605,
                    -0.008040860287448532,
                    0.0016588094946958331,
                    0.025584178484482453,
                    0.02754771308047574,
                    0.022931238143184346,
                    0.0274,
                    0.0048,
                    0.012736692805187874,
                    0.02541624832151659,
                    0.011535319007477788,
                    -0.0006192939152443455,
                    -0.003942123878769075,
                    0.0034287340133737068,
                    -0.027704666058378884,
                    -0.03631012746868497,
                    -0.06915649136478932,
                    -0.08822558082316113,
                    -0.1127116584636127,
                    -0.1099965341342351,
                    -0.13772396167304668,
                    -0.13893177786931862,
                    -0.14411681327401224,
                    -0.12827246930979724,
                    -0.12275211995985978,
                    -0.1209342523747874,
                    -0.07900211832810523,
                    -0.053922117444834744,
                    -0.03253644275387155,
                    -0.017404600385750917,
                    -0.0017495305173298543,
                    0.015129698949544046,
                    0.021956670088663612,
                    0.004092654011310449,
                    0.0019,
                    0.0084,
                    0.013918183978604386,
                    0.006422387468716328,
                    0.018273632663366058,
                    0.0075590236083606845,
                    0.001918883556781869,
                    -0.010608097664034198,
                    -0.010011918930936451,
                    -0.056258332227378936,
                    -0.08252535548999819,
                    -0.10914451438836933,
                    -0.14294999359875302,
                    -0.1841933288918631,
                    -0.19444875047164775,
                    -0.19046849030153687,
                    -0.17482342344395174,
                    -0.1356916769494428,
                    -0.11757868630154361,
                    -0.11019872495328494,
                    -0.12413392577227612,
                    -0.11217498600320118,
                    -0.08612285965227855,
                    -0.03622321375627675,
                    -0.005292090143475925,
                    0.012989950904103924,
                    0.005971439943752641,
                    0.01570133448792314,
                    0.0014000411323524871,
                    0.022051257611146974,
                    0.028004968581603784,
                    0.03275071156025059,
                    0.005735316906588498,
                    0.026737630155746032,
                    0.040530654905838966,
                    0.013907322336602135,
                    -0.023545447006048763,
                    -0.015296359706465012,
                    0.01212233233837672,
                    -0.023021063263103755,
                    -0.035449131126987436,
                    -0.08424677595991169,
                    -0.09463060792264891,
                    -0.09727583258606759,
                    -0.03704759372526107,
                    -0.011820403876037087,
                    -0.03204880262198384,
                    -0.05120805104081509,
                    -0.019233209395998756,
                    -0.02714851723329574,
                    -0.009456016178344748,
                    0.009566749308002002,
                    0.01932428133541713,
                    0.01569177702756667,
                    0.03525106355002837,
                    0.0074472167698349315,
                    0.015861187913589432,
                    0.030447183149667476,
                    0.03062385298651041,
                    0.04397414077706244,
                    0.017263688402618584,
                    0.04901513987157015,
                    0.060026305088069803,
                    0.06272974901082301,
                    0.01898482244190055,
                    0.03392215563620295,
                    0.03878250308844403,
                    0.03653291759222876,
                    0.060451979552113864,
                    0.05121448759537739,
                    0.05074032121784747,
                    0.03343054023520183,
                    0.07021843535518116,
                    0.09704770720503612,
                    0.10795480368864,
                    0.06586228766195736,
                    0.06775488348498893,
                    0.05973347369451053,
                    0.0657562140044839,
                    0.08693553261004283,
                    0.07893971086120663,
                    0.04163649816516187,
                    0.024895657227851975,
                    0.019221875415363066,
                    0.003497230398079387,
                    0.00813247360995403,
                    0.03586426214765209,
                    0.04732957593086456,
                    0.05432040499342008,
                    0.05035138047860942,
                    0.06516038655503094,
                    0.05369027587580362,
                    0.04787701545548467,
                    0.04484589355188479,
                    0.07330785966870863,
                    0.12106409147109295,
                    0.2035342574235032,
                    0.20171807321553026,
                    0.1783855618764887,
                    0.14878895128494257,
                    0.1727539783837126,
                    0.21423878125964033,
                    0.16775805811332373,
                    0.13113177859157207,
                    0.0839603028967518,
                    0.05382561488034073,
                    0.08328921653025592,
                    0.05795692549388147,
                    0.10704070424875657,
                    0.08997679337823102,
                    0.0377727201884527,
                    0.005981551893025243,
                    0.019108883374574528,
                    0.01891188981712484,
                    0.03772359948916493,
                    0.07207667931581077,
                    0.04302760459343114,
                    0.059122441169360856,
                    0.050276221265896696,
                    0.01638593827328977,
                    0.056560923635735214,
                    0.04474909285422214,
                    0.13103140484215522,
                    0.18076465448775947,
                    0.18301687943686212,
                    0.22430377300557536,
                    0.23201690242169326,
                    0.1900509458500411,
                    0.16211637650155758,
                    0.1375631750850323,
                    0.16196592198586793,
                    0.15495794398855867,
                    0.12457002245841509,
                    0.07719086203463763,
                    0.05442566562260923,
                    0.07849358652815215,
                    0.07274825286281976,
                    0.08647109971061577,
                    0.019993318603352697,
                    0.006557271671858685,
                    0.025259409288401546,
                    0.027232041882630134,
                    0.037382044115338506,
                    0.07371179433491196,
                    0.08104025627816494,
                    0.06536766193256079,
                    0.04234736485658699,
                    0.04179814661696473,
                    0.04108684646418389,
                    0.04208005758402717,
                    0.0466729055887433,
                    0.13466614638779606,
                    0.15973044205299033,
                    0.18184551352981726,
                    0.15231974929325656,
                    0.10096792278292736,
                    0.07047469501148874,
                    0.06653074161517854,
                    0.062230869533736,
                    0.05521145343869361,
                    0.03558871626328075,
                    0.022213874815359583,
                    0.0132784508425348,
                    0.017437090645455743,
                    0.04120202095150573,
                    0.055742397342132696,
                    0.012192650526565122,
                    0.021850007287086408,
                    0.01163630376835515,
                    0.016475306359714042,
                    0.04526784398959161,
                    0.07599583754314125,
                    0.07460337121700487,
                    0.0376577951437363,
                    0.032407127155266745,
                    0.034562204816616954,
                    0.03471233468981456,
                    0.03091405476239514,
                    0.005435749907761743,
                    0.04787447451632827,
                    0.010207263089099864,
                    0.007271904286295744,
                    0.04828895662932895,
                    -0.017289813231857826,
                    -0.029215535417450984,
                    -0.06301603195823592,
                    -0.05728100265633166,
                    -0.042565062017995585,
                    -0.05789888147867076,
                    -0.058180848674219014,
                    -0.027446619879859732,
                    -0.02122007142003736,
                    -0.009942049450421861,
                    0.02156170037692629,
                    0.019589828230403485,
                    0.025603555467518153,
                    0.0236,
                    0.02231277458117896,
                    0.03951476183484286,
                    0.03404972236678328,
                    0.04846541688125133,
                    0.03681657789851111,
                    0.02395598284562826,
                    -0.01458312067855555,
                    -0.0028231868089799465,
                    -0.020410501173653794,
                    0.01738648651150751,
                    0.02496801566449617,
                    -0.027239012122126274,
                    -0.04904606661286838,
                    -0.01156805776759347,
                    -0.06575975938124125,
                    -0.10470080900393536,
                    -0.1260557567605173,
                    -0.11470762382647191,
                    -0.07317050834268322,
                    -0.04906221902826449,
                    -0.05187704115456839,
                    -0.035466665474550595,
                    -0.02658612612772756,
                    -0.005233985041760991,
                    0.027992223867995953,
                    0.01950822295952446,
                    0.009325672880234328,
                    0.0268,
                    0.003042684258543159,
                    0.020607419947171166,
                    0.019182682335230232,
                    0.019407723877683237,
                    -0.01646806053158211,
                    -0.03947301731759158,
                    -0.050714967998849184,
                    -0.04973823661850828,
                    -0.019276518567465553,
                    0.0014108313139214275,
                    -0.019944438171734268,
                    -0.03907273350282857,
                    -0.03990067428061805,
                    -0.0651818732053827,
                    -0.07869638227674723,
                    -0.12385664094980205,
                    -0.068902949454186,
                    -0.022113069722278427,
                    -0.026257343867195554,
                    0.00758967975445731,
                    0.009341434818829038,
                    0.02928662226127622,
                    0.0334034405409982,
                    0.03142794826705242,
                    0.03416678604504344,
                    0.015382576161367892,
                    0.021302623443384443,
                    0.0165000352470027,
                    0.0065,
                    0.02965197415223426,
                    0.020540702017480903,
                    -0.0014114500127498453,
                    -0.011102150500994439,
                    -0.007069764441108056,
                    -0.0650387219449475,
                    -0.050383556968026925,
                    -0.011249918371362655,
                    -0.01903287200484758,
                    -0.015201682920441795,
                    -0.014996332009338887,
                    -0.050550079251853224,
                    -0.04385787387592172,
                    -0.06663172567952429,
                    -0.10496357907315433,
                    0.05126182073693296,
                    0.034378621157912355,
                    0.022759031603758025,
                    0.01908171805237482,
                    0.06114610120385322,
                    0.0328964272029771,
                    0.02203229968045201,
                    0.010662711328084265,
                    0.023265443723751982,
                    0.03447028750084004,
                    0.012695837836263352,
                    0.009500201411449458,
                    0.023774593587934763,
                    0.023887138806503165,
                    0.004783856154073989,
                    0.0031432348598222277,
                    -0.011998814952582836,
                    -0.017386436180898447,
                    -0.012735720500647607,
                    -0.02017945408055177,
                    0.006157940817158701,
                    -0.002132229764609026,
                    -0.03507908327019246,
                    -0.04066167206823353,
                    -0.06745163068444884,
                    -0.06303820120285229,
                    -0.04614257647232058,
                    -0.05016206800894882,
                    0.05683500182869147,
                    0.02304951395782213,
                    0.0007277753874153229,
                    -0.0017700233027008938,
                    0.008373551782837434,
                    0.00845632504427878,
                    -0.014917746810442728,
                    0.03761538810870353,
                    0.037551344998792674,
                    0.021781209374522784,
                    0.021388532843679035,
                    0.0064,
                    0.01549902024290889,
                    0.021174355805722342,
                    1.4774261369217621e-05,
                    -0.01220020723629015,
                    0.01601500747902033,
                    0.024683940376730055,
                    0.011174092397901696,
                    0.024390648618764197,
                    0.0350179637425222,
                    0.02003535955881805,
                    -0.027385481669314846,
                    -0.0913528022918059,
                    -0.06317408610368054,
                    -0.030608865075831642,
                    -0.011801291609050562,
                    -0.037667800536666796,
                    0.04837498676462806,
                    0.04978853523727105,
                    0.048808226553761436,
                    0.024026464929683782,
                    0.004181339891366443,
                    -0.00757936954655455,
                    0.002937193290489806,
                    0.006606492983670145,
                    0.0042946791647588255,
                    0.007707586760730774,
                    0.025775992840334657,
                    0.022520806541385215,
                    0.011700263173430018,
                    0.028147918867581886,
                    0.01827564120726134,
                    -0.016206607653218404,
                    0.015640944732657747,
                    0.019956055453522237,
                    0.007895067313465178,
                    0.006606700711103099,
                    -0.007149030580238521,
                    -0.005615889564981505,
                    -0.04293147130043151,
                    -0.06557846881180494,
                    -0.017836559033826003,
                    0.02037968334114808,
                    -0.01324793083382269,
                    -0.015314854297970595,
                    0.03334520363136896,
                    0.045178850709451684,
                    0.033263600992743135,
                    -0.01613562982637352,
                    -0.020087077753605066,
                    0.0026126129914786525,
                    -0.005616827275032921,
                    -0.0068051391995044095,
                    0.019630082696559373,
                    0.0025479647192762703,
                    0.0019302788305548795,
                    0.0056,
                    0.02973430803115739,
                    0.023795352142520973,
                    -0.0056675533534384336,
                    -0.0022496135176269536,
                    0.023074371045559407,
                    0.024888522998121235,
                    0.0030867170606833933,
                    0.026680495730954826,
                    0.0013761028133938182,
                    -0.027240175467682735,
                    -0.05416426321830705,
                    -0.03749215270193305,
                    -0.0024805131947603634,
                    -0.013673226146632697,
                    -0.017468795404799085,
                    -0.02511927747813269,
                    0.0062160225542913575,
                    0.007231744356465981,
                    -0.015994379930502758,
                    -0.054405379229181296,
                    -0.05799794402339655,
                    -0.005943932454107358,
                    0.005692805688495327,
                    -0.0011600173346917163,
                    -0.0038612174350707074,
                    0.014768429036260215,
                    0.0224,
                    0.0068,
                    0.01496136610507553,
                    0.014764155039270314,
                    0.020283321709535417,
                    -0.004975091135995826,
                    0.006834866829318312,
                    -0.029975476141693887,
                    -0.030239939675056324,
                    -0.012406472579591031,
                    -0.04818006831824163,
                    -0.07812775025624866,
                    -0.08123688943742109,
                    -0.05500799610605298,
                    -0.02312114338867362,
                    -0.058640477322105124,
                    -0.06354177347521159,
                    -0.07029378679635785,
                    -0.03172519347625776,
                    -0.06564647718774191,
                    -0.06717797338987921,
                    -0.08819756070011399,
                    -0.055168293711463534,
                    -0.031816761581857735,
                    -0.017897171309589614,
                    0.004199614762304494,
                    0.02798994551378191,
                    0.01591092948700402,
                    0.028500026395384445,
                    0.0111,
                    0.005291311928726181,
                    0.00816331099818109,
                    0.004833545584361653,
                    0.012408257423259069,
                    -0.025440988825280817,
                    -0.0452920386120207,
                    -0.05149049428761061,
                    -0.08282697019683659,
                    -0.07364508444817643,
                    -0.11736371862665286,
                    -0.0900995759387576,
                    -0.048443181716119284,
                    -0.06000149734632766,
                    -0.07606297284097703,
                    -0.07444183797700363,
                    -0.08299824817191045,
                    -0.0629125691493883,
                    -0.054516354387657166,
                    -0.05502586663340005,
                    -0.07609799136193235,
                    -0.053982465108704816,
                    -0.02618374215048745,
                    0.0012214879394482471,
                    0.0014907550273194408,
                    0.025791888469661055,
                    0.020669396759099613,
                    0.0101,
                    0.0134,
                    0.004199606982234946,
                    0.008683448765754935,
                    0.011384741766639644,
                    0.005554524265501357,
                    -0.010493572535672221,
                    -0.023882637989398624,
                    -0.04175828136141812,
                    -0.04707253475122786,
                    -0.03198146277959331,
                    -0.07665672056313744,
                    -0.08905930792244995,
                    -0.013835022389227191,
                    -0.030704719160668997,
                    -0.03794681401312409,
                    -0.03810188931278448,
                    -0.058252846309211674,
                    -0.022335523393068216,
                    -0.05446130355909455,
                    -0.07974644827852564,
                    -0.049383907426285914,
                    -0.03263366419180708,
                    -0.014401129183169898,
                    0.009950078022236415,
                    0.03199221278725985,
                    0.0031584423633090036,
                    0.006592740328820098,
                    0.0134,
                    0.0215,
                    0.0155,
                    0.0019688880047949793,
                    0.0019421432855024703,
                    0.02870976137830742,
                    0.025782547752167324,
                    0.0007781409783295824,
                    -0.013923635957870514,
                    -0.016847188717124494,
                    -0.03834512879285417,
                    -0.030498434322632485,
                    -0.01500744811135816,
                    -0.01498454533349288,
                    -0.03077116446351617,
                    -0.0314389545672892,
                    -0.006824349298591347,
                    -0.007273755840378295,
                    -0.002535688184351456,
                    -0.0371726075587528,
                    -0.049255695366298806,
                    -0.017285061579661216,
                    -0.018354927882463835,
                    0.00637398471943154,
                    0.003061872832222198,
                    0.012024988238606042,
                    0.021040359049392342,
                    0.02738588697292669,
                    0.0142,
                    0.0213,
                    0.0155,
                    0.015222951075615507,
                    0.01972687827987438,
                    0.026109165626614955,
                    0.046289071886461065,
                    0.014428880757651606,
                    0.027871804418064954,
                    0.011741993168782747,
                    -0.016521745697955174,
                    0.02057728481943794,
                    0.04148073424531853,
                    0.025776329293804797,
                    -0.01879959960224206,
                    -0.041486049364180655,
                    0.01511420248844872,
                    0.02464092899462826,
                    0.05896273817942723,
                    0.00533572340367996,
                    -0.010334871609920741,
                    0.018468835425175037,
                    0.009653556833812037,
                    0.029410967421261806,
                    0.014983660489672274,
                    0.014178640512497283,
                    0.005727045426868408,
                    0.02885099924255744,
                    0.0071,
                    0.0176,
                    0.0238,
                    0.019135446370908585,
                    0.029747933864700753,
                    0.03075876620172537,
                    0.031717638726753185,
                    0.028556882501525025,
                    0.04328448913675513,
                    0.05449272017347558,
                    0.0509214523683948,
                    0.05431649552788136,
                    0.09178644509107688,
                    0.10324749737287149,
                    0.07828296515027479,
                    0.08316355151590948,
                    0.10442583658200895,
                    0.10003268143229856,
                    0.1121591069244776,
                    0.05566026315420297,
                    0.04065209030367203,
                    0.04358721001347132,
                    0.015285965216921122,
                    0.020031352091473286,
                    0.008842953062354346,
                    0.015007860491145084,
                    0.0129,
                    0.0069,
                    0.0264,
                    0.0046,
                    0.015,
                    0.0146,
                    0.004312884943704905,
                    0.0007115822467339425,
                    0.009269689345695067,
                    0.006013699189242178,
                    0.01935228115192534,
                    0.04653602517505573,
                    0.05860867962781115,
                    0.06421059841468539,
                    0.035507545000679444,
                    0.05568480728592505,
                    0.0977216697652249,
                    0.07246632954554003,
                    0.07241352414368227,
                    0.06493117921322868,
                    0.05722039593115451,
                    0.050137962322654765,
                    0.05124815942193412,
                    0.021680161277531435,
                    0.022727343436450442,
                    0.013418827765352836,
                    0.023161161999596513,
                    0.018302209670103677,
                    0.01980061789988704,
                    0.0245,
                    0.0215,
                    0.019,
                    0.0288,
                    0.0066,
                    0.0094,
                    0.012723830657698828,
                    0.009072226011592952,
                    0.005357428107115574,
                    0.027957209286122154,
                    0.01664844814053768,
                    0.0037098000516798094,
                    0.021155553557206008,
                    0.01276372178752287,
                    0.029862883548550746,
                    0.037816236621551653,
                    0.03259618788242039,
                    0.010803647219385551,
                    0.02697129787292025,
                    0.024667063083799384,
                    0.03308271427155473,
                    0.01809817274531002,
                    0.005681102582034748,
                    0.007753461295866373,
                    0.008297984102267557,
                    0.0041819759571617675,
                    0.0155,
                    0.0192,
                    0.0185,
                    0.0122
                ],
                [
                    0.009,
                    0.0202,
                    0.0268,
                    0.0065,
                    0.0064,
                    0.0252,
                    0.0044,
                    0.0149,
                    0.0051,
                    0.0248,
                    0.0193,
                    0.0299,
                    0.008300528829959066,
                    0.006811422726834502,
                    0.014211422726834502,
                    0.011700475946968183,
                    0.0091,
                    0.0215,
                    0.0076,
                    0.0294,
                    0.002,
                    0.0204,
                    0.0056,
                    0.0299,
                    0.0261,
                    0.0295,
                    0.0224,
                    0.0099,
                    0.0173,
                    0.0089,
                    0.0105,
                    0.0053,
                    0.0015,
                    0.0256,
                    0.004,
                    0.009133894771121392,
                    0.023904628127357632,
                    0.00849161025235216,
                    0.013522986515602627,
                    0.02603112396970551,
                    0.004463055422000645,
                    0.02544916798586334,
                    0.019041501172756686,
                    0.015292516255007228,
                    0.010481794012626,
                    0.0058491801514343805,
                    0.024027158801176385,
                    0.0012240923816763906,
                    0.007609400923720812,
                    0.019937019218375072,
                    0.005403176014602168,
                    0.024225670979698837,
                    0.005,
                    0.0053,
                    0.0115,
                    0.0018,
                    0.009,
                    0.0265,
                    0.0079,
                    0.0026901851842771377,
                    0.022036934123696148,
                    0.001050620701857429,
                    0.01964775557340857,
                    0.025043190966788073,
                    0.007829754536396984,
                    0.025666905430887402,
                    0.014605950625083894,
                    0.021478297471387554,
                    0.0073149058634068,
                    0.022992259750217733,
                    0.011433012506623787,
                    0.01270824897775461,
                    0.021943680208962868,
                    0.010868614241381799,
                    0.01921893335146658,
                    -0.0002141047415031503,
                    -0.0007975653727950761,
                    0.02566152381271393,
                    0.005281807026384973,
                    0.020110657715545707,
                    0.0033909018808512457,
                    0.011094496100368917,
                    0.0058,
                    0.0276,
                    0.014,
                    0.0291,
                    0.0164,
                    0.025761152050040453,
                    0.02340917297225828,
                    0.006682322265821846,
                    0.02050422023255396,
                    0.01636226778774871,
                    0.010950605369257621,
                    0.008526865764201497,
                    0.0010691931207710659,
                    0.018640243739272765,
                    0.012707594054075608,
                    0.010137382312430589,
                    -0.00675621089042918,
                    -0.015580406019919805,
                    0.014609542160934613,
                    -0.00370198317644802,
                    -0.007975493654708527,
                    -0.03747567275685442,
                    -0.02431314412297922,
                    0.007508486445071071,
                    0.0015001429614967835,
                    0.0034856411573953444,
                    0.018503267546409758,
                    0.02797806319761671,
                    0.00905931417686782,
                    0.0272,
                    0.009,
                    0.0101,
                    0.019100054026605646,
                    0.007523782510038097,
                    0.0024846082411581075,
                    0.017178699049476394,
                    0.012943098888834454,
                    0.022170233523597715,
                    0.00722760840548964,
                    0.003429640985053741,
                    -0.0030297598237238534,
                    -0.009776729790112156,
                    0.001888129836020559,
                    0.02476147136572341,
                    0.027314055107411937,
                    0.04477876604065067,
                    0.07163306893155943,
                    0.022499454351564332,
                    -0.014199940716365888,
                    -0.038248921399826365,
                    -0.029112562815721093,
                    -0.029346419084083815,
                    -0.015240159058193495,
                    -0.031888906279929415,
                    -0.011258166079330303,
                    0.0012332090770240292,
                    0.001962529317993869,
                    0.0043,
                    0.0061,
                    0.0214,
                    0.0161245933277886,
                    0.0007359851268706744,
                    0.009993604406421844,
                    -0.001233819214424845,
                    -0.0202034058181058,
                    -0.008478013593255068,
                    -0.014554468062601272,
                    -0.01935127243948943,
                    -0.042013239242445904,
                    -0.004238454898920965,
                    0.0032900173240549293,
                    0.07173216661447492,
                    0.06900937644445529,
                    0.10463978544254869,
                    0.1341737116828949,
                    0.11980019383192901,
                    0.06455798119711456,
                    0.03650480092229688,
                    -0.011977125676880439,
                    -0.022520497341949903,
                    -0.041631226333785784,
                    -0.0776849117416346,
                    -0.018534700272717947,
                    0.008490557546287917,
                    0.016724675376991193,
                    0.01820174649417023,
                    0.0197,
                    0.020799995089428557,
                    0.007802934428341545,
                    -0.0003649562829210231,
                    0.014689806843522562,
                    0.0009766594902130819,
                    -0.038711859139204545,
                    -0.034059541431227906,
                    -0.04866585149004522,
                    -0.04523582129752574,
                    -0.04783086149146249,
                    -0.046013256235937175,
                    -0.00876404449098868,
                    0.010282188942694852,
                    0.0448706669353359,
                    0.11423999173139239,
                    0.1948573066486536,
                    0.16667389532138063,
                    0.12440701066846134,
                    0.07264097240452243,
                    0.007067375694055352,
                    -0.005120708268021542,
                    -0.04426158997719837,
                    -0.0795735831443792,
                    -0.06698868033103711,
                    0.00020965675840615232,
                    0.019839349105352656,
                    0.00334969788736076,
                    0.0213,
                    0.016608437304929405,
                    0.025623558940157,
                    0.02634127052241848,
                    0.016130576153578585,
                    -0.026061396967221238,
                    -0.02570619330217933,
                    -0.021484043245940145,
                    -0.025533185296121454,
                    -0.04260912039697678,
                    -0.04536901969475596,
                    -0.026795924625205348,
                    -0.017275340435392257,
                    -0.001672294150002562,
                    0.003383767697806808,
                    0.06931995167613782,
                    0.14615791197537725,
                    0.15177203768486153,
                    0.14548317181876544,
                    0.0647095029215099,
                    0.031213835136600348,
                    0.0341120162350902,
                    0.0028797450866699364,
                    -0.03538556015431361,
                    -0.052362942958646796,
                    -0.021290577116956824,
                    0.010301521015548378,
                    0.015882055969603157,
                    0.006572603541417889,
                    0.021761414617844765,
                    0.026956961449481658,
                    0.016354902371361918,
                    0.008707358913138119,
                    -0.014279692597300175,
                    -0.032549427622729984,
                    -0.019769557412470426,
                    -0.007352366806287218,
                    -0.0260738465825422,
                    0.00017311629388730822,
                    0.020958058061759804,
                    0.029147246604232457,
                    0.0024187486147934337,
                    0.011333449194004861,
                    0.047624780101991754,
                    0.05059575046423194,
                    0.06925509146512245,
                    0.10217879408077325,
                    0.08214584434771531,
                    0.06446390865541542,
                    0.048821304249212015,
                    0.03851282044019781,
                    0.039363249737416624,
                    -0.032689789831887105,
                    -0.036622367134057955,
                    0.0018674290297883863,
                    0.0018485065663264107,
                    0.02981494245478499,
                    0.007421262643917119,
                    0.02183949897575408,
                    0.006033651495561333,
                    0.009656166216426027,
                    -0.006368940885481732,
                    -0.03281031043641301,
                    -0.02349451718129378,
                    -0.006598861576502397,
                    0.024247685016808365,
                    0.025958842856245157,
                    0.03933712150168595,
                    0.052451065537060415,
                    0.04813941529653043,
                    -0.0006122201969979417,
                    -0.03624106539243273,
                    -0.021505761306823523,
                    0.009307771287383542,
                    0.05016266610284008,
                    0.07588790890599777,
                    0.04423161943701796,
                    0.045306121591754685,
                    0.049173574481596566,
                    0.04607525024620394,
                    -0.016391908812215708,
                    -0.024280129600492927,
                    -0.003739521135982588,
                    0.009078549448407025,
                    0.023627378610959104,
                    0.0023678526341955703,
                    0.027933608490689234,
                    0.0013827009353871477,
                    0.02413850603550056,
                    -0.0013518916198460473,
                    -0.002494287316920608,
                    0.006239293192544429,
                    0.009310869352071396,
                    0.002753871394390968,
                    0.01753044930352984,
                    0.04263786824222686,
                    0.01806793342623006,
                    -0.00433292484140453,
                    0.0051378734253161515,
                    -0.11056333927275856,
                    -0.12238989622741407,
                    -0.06844732102642401,
                    0.04296722838580955,
                    0.044590322168019655,
                    0.053509059592927656,
                    0.07957686189360422,
                    0.07753134025882104,
                    0.08531325773434942,
                    -0.002284604244039457,
                    -0.022043730425191116,
                    0.015199078649424689,
                    0.02349945242423649,
                    0.019406409147049313,
                    0.016632828698583457,
                    0.0275270003198491,
                    0.0010912878612635924,
                    0.0028947585236985766,
                    -0.0057851660222637035,
                    0.001072462960240452,
                    0.05420773351670703,
                    0.036125677562259505,
                    -0.019867019694447933,
                    -0.005657417223643627,
                    0.016038712854839862,
                    -0.040370882276319,
                    -0.028589491496812267,
                    -0.04518663932903795,
                    -0.1373546245002418,
                    -0.18046924855046315,
                    -0.06740551666749843,
                    -0.0017529165704881558,
                    0.04820159417410546,
                    0.06107287995653829,
                    0.07842859854322676,
                    0.11087264876528448,
                    0.10567339484220575,
                    0.06582187047058967,
                    0.029630312668459474,
                    0.00805022512361019,
                    0.019364224179240122,
                    0.012700045473790885,
                    0.0029947377543876404,
                    0.026994861316369332,
                    0.017222723606684424,
                    0.0023470655750435472,
                    0.010828090246794597,
                    0.008494366938258866,
                    0.023670050380674525,
                    -0.010701428587451153,
                    -0.003714426638047445,
                    -0.0349209367908929,
                    -0.0818424882349215,
                    -0.10541728012394147,
                    -0.06588364387796775,
                    -0.09375214649497468,
                    -0.11707082656621975,
                    -0.0665486228477251,
                    0.0229504208888203,
                    0.057647521387633585,
                    0.09015470204076355,
                    0.041411138008265784,
                    0.06352464135113131,
                    0.09262796683872838,
                    0.09415387399427538,
                    0.062292093699738746,
                    0.0169776653627409,
                    0.01900707146590465,
                    0.018428514080611993,
                    0.0208,
                    0.012996063347471273,
                    0.022380857993392216,
                    0.01731024984877334,
                    0.0029900428967580142,
                    -0.0035617457473838808,
                    -0.0004193852070110115,
                    -0.024728192525138828,
                    -0.025304080395993148,
                    -0.028643219848178046,
                    -0.020403908424066263,
                    -0.09158325241798063,
                    -0.09132784388264631,
                    -0.050954936961915914,
                    -0.04783801194318154,
                    -0.022582411211274432,
                    0.020573750763246308,
                    0.0545378322526371,
                    0.07323007323116912,
                    0.022550225982709598,
                    -0.015994821653887242,
                    0.013548999510981114,
                    0.07082161118892678,
                    0.059460023736392226,
                    0.045695047231667126,
                    0.03878864163405276,
                    0.011018114322987936,
                    0.00510764926671995,
                    0.0193,
                    0.02447589981267802,
                    0.01401926240500969,
                    0.0028021127440131283,
                    0.011447323474030635,
                    0.002965423477739258,
                    0.004241065534355251,
                    -0.004089692821082142,
                    -0.03546734540536237,
                    -0.07988595762512304,
                    -0.04697216738025113,
                    -0.028681344608211024,
                    -0.0226985149187563,
                    -0.01824644369962188,
                    -0.021888356715909312,
                    0.034657520355886984,
                    -0.011789485651976466,
                    0.06950061949317243,
                    0.04753393193674057,
                    0.006473758042609413,
                    -0.045098309466889,
                    -0.014026273297768895,
                    0.012435846471624198,
                    0.03157882033056458,
                    0.03046468298870096,
                    0.01782664416688923,
                    0.007548875222568956,
                    0.012,
                    0.0149,
                    0.009539623438945008,
                    0.013276128036547418,
                    0.009161927579218845,
                    0.024574512045267716,
                    0.014520321933230152,
                    -0.013598586265873059,
                    -0.028062874583977927,
                    -0.03726072116522873,
                    -0.020372967465602503,
                    -0.0027089837189870833,
                    0.007713905511329207,
                    0.013661397310415437,
                    -0.00554003908961412,
                    -0.0253856366407505,
                    0.0024331160627278437,
                    -0.019424670018988212,
                    0.015074666887119888,
                    -0.019183822578686123,
                    -0.06511907242207235,
                    -0.0671927596966822,
                    -0.03041854320854537,
                    -0.01677750274166322,
                    -0.00019756608774793206,
                    0.01354526635993011,
                    0.015472995643764855,
                    0.017724683773084463,
                    0.006975802083578715,
                    0.0043,
                    0.010096565008796828,
                    0.021396212946386307,
                    0.017243619320225577,
                    0.005236671856624336,
                    0.015342693235985272,
                    -0.010200234111719773,
                    -0.021729369511886146,
                    0.00294590530769985,
                    0.03722127083914028,
                    0.04300528016997819,
                    0.0038999911701137345,
                    0.0053659990486644256,
                    -0.06058343874389369,
                    -0.014388803811195875,
                    -0.00783906126744985,
                    0.008742069241340604,
                    -0.042208210273356306,
                    -0.09213628676218083,
                    -0.12212308901502113,
                    -0.10005340793874501,
                    -0.05601776666152973,
                    -0.03601170402813115,
                    0.014883908545622633,
                    0.02074086326386441,
                    0.008180208362850938,
                    0.033475276806600146,
                    0.021081731078661042,
                    0.0233,
                    0.017597102949048326,
                    0.0026377614386275884,
                    0.0013098694768271927,
                    0.004523656410642225,
                    0.008265920730988096,
                    -0.026470027950693756,
                    -0.017525738207951478,
                    0.0403614851528865,
                    0.08182088571590841,
                    0.06678493617282434,
                    0.025032313576492604,
                    -0.03965943955927652,
                    -0.061709015793300306,
                    -0.0028724909959904556,
                    0.014524101011236542,
                    0.016613527091944157,
                    -0.09130992643645981,
                    -0.13724219724356482,
                    -0.13032985174233838,
                    -0.08549101013377482,
                    -0.05102482929226772,
                    0.004136793229282179,
                    0.02531276064717724,
                    0.005684097032746487,
                    0.029517230646425845,
                    0.005203022729579206,
                    0.005586500525681532,
                    0.005363314029498212,
                    0.017593730645729028,
                    0.007958652498971815,
                    -0.022667321606938233,
                    -0.02549372193968657,
                    -0.002347315417808638,
                    -0.031178695193131302,
                    0.033821876804811725,
                    0.10225093123798432,
                    0.10075904326032817,
                    0.0848359857985606,
                    0.02197313091985635,
                    -0.06650651535695663,
                    -0.07023901721841039,
                    -0.020530200723229832,
                    0.046159222085777954,
                    -0.010382157917770809,
                    -0.05848257071522753,
                    -0.09212121903836079,
                    -0.09442239228584381,
                    -0.06816907448143678,
                    -0.03302861506134597,
                    0.027099524469924467,
                    0.032674792535918214,
                    0.01004435829254911,
                    0.011155969001363878,
                    0.018554727227877432,
                    0.007004408392861853,
                    0.02979768909846485,
                    0.014693226310000793,
                    0.016982578727918012,
                    -0.003400237537541712,
                    -0.02144128371470698,
                    -0.034442203929498406,
                    -0.0072799160850407,
                    0.04705995758790073,
                    0.07562925780338144,
                    0.07253870438012418,
                    0.05690372737565189,
                    -0.023555613171601764,
                    -0.06020521498997294,
                    -0.05701041436620076,
                    -0.0038081795434969706,
                    -0.0032762338704641126,
                    -0.019738903560245113,
                    -0.06260399797907484,
                    -0.11457361119287818,
                    -0.08724485502564124,
                    -0.057048661663741326,
                    -0.019784986265221127,
                    0.03785456654054159,
                    0.03231609451660644,
                    0.021277266054964116,
                    0.024512303921801454,
                    0.016388024028394836,
                    0.009297846656848983,
                    0.0215,
                    0.01636073213494751,
                    1.9956623262509762e-05,
                    -0.009997282256906605,
                    -0.010948784058444879,
                    -0.017400455473763208,
                    0.014832322581030656,
                    0.0311773889746341,
                    0.017631442499428832,
                    0.030985087402306107,
                    0.016830488111554878,
                    -0.04523388686995387,
                    -0.0641808540765707,
                    -0.03349690216346342,
                    -0.013744391500726334,
                    0.008664321737371744,
                    -0.03274065229835046,
                    -0.08656476604275189,
                    -0.0983622920729895,
                    -0.07575123538600824,
                    -0.03930405440948285,
                    0.0010263557407472032,
                    0.0194505851809245,
                    -0.0006701268037760721,
                    0.023176540317807907,
                    0.02597005184744292,
                    0.022736971005181128,
                    0.016391530801722207,
                    0.004798353428340649,
                    0.004992326188405394,
                    0.006499220318668751,
                    0.01321340943380451,
                    -0.027827401183862333,
                    -0.013000753064615348,
                    0.00247830223698413,
                    0.024014933359974573,
                    0.0065724808078597135,
                    0.03559805088952574,
                    0.0333147448145108,
                    0.01853535588272474,
                    -0.010957764502364622,
                    -0.011634155014929844,
                    -0.019942041282203032,
                    -0.022501719375317468,
                    -0.05375056911561501,
                    -0.09372024439838436,
                    -0.05908845809572763,
                    -0.05052397214286951,
                    -0.06328692826530481,
                    -0.020738029169701095,
                    0.00761163703182568,
                    0.020319742059081203,
                    0.015225744433791795,
                    0.02454209576863445,
                    0.005197359018524721,
                    0.01870007299393234,
                    0.026898404883796655,
                    0.01819854417309865,
                    0.005572698792120751,
                    0.012878100271084072,
                    -0.030374612947306895,
                    -0.024434146585573267,
                    0.013674233920901509,
                    0.021812616525366986,
                    0.041425845295042625,
                    0.060108407609087096,
                    0.09381162383338268,
                    0.08884464518427934,
                    0.06686219077867793,
                    0.0365808230930064,
                    -0.00986208132598613,
                    -0.06265229552125036,
                    -0.07104539151652245,
                    -0.05348619882275287,
                    -0.03277507639532605,
                    -0.06181275093903406,
                    -0.05822865209011052,
                    -0.05192111259167486,
                    -0.009772848799918882,
                    0.02249327040339873,
                    0.001391756327351485,
                    0.006191534729368703,
                    0.024531592595208887,
                    0.020800134758030026,
                    0.0018,
                    0.0072,
                    0.025547467907099605,
                    0.004917537501922412,
                    -0.027449138690438232,
                    -0.03131805478002974,
                    -0.017027687550322433,
                    0.02374495678010095,
                    0.032967239313160625,
                    0.04379627356567074,
                    0.07268316226733126,
                    0.08227220573714256,
                    0.11954740877619806,
                    0.08526881785016718,
                    0.052587539796810884,
                    -0.0031250274607552615,
                    0.009501332955147969,
                    -0.01769189681292364,
                    -0.039441965705628836,
                    -0.03939751140558226,
                    -0.05077459532479699,
                    -0.011495633921535253,
                    0.001961647066760706,
                    0.0046767810207330885,
                    0.003940927982423432,
                    0.01488730999437928,
                    0.011635084757499737,
                    0.0153,
                    0.012,
                    0.0264,
                    0.006551911520899434,
                    0.001225824281649859,
                    -0.010803828559608928,
                    0.00037660418063429474,
                    -0.013862610213816446,
                    -0.03653495305173291,
                    -0.01663149079620295,
                    0.0015759417957005445,
                    -0.003109024305374989,
                    0.015453598511942281,
                    0.07138622533724565,
                    0.07933435724378941,
                    0.05587902720311415,
                    0.06553980040258947,
                    0.03998603760339052,
                    0.010664255283100485,
                    -0.004042123806590911,
                    0.016212854229768897,
                    0.008324140012385042,
                    0.01863067003265559,
                    -0.0022822592775589654,
                    0.00044909149374624743,
                    0.028141272278106335,
                    0.004268256049592906,
                    0.0029447336436118675,
                    0.0187,
                    0.0021,
                    0.0239,
                    0.01098041804074752,
                    0.002638578910583499,
                    0.00404218706135061,
                    0.020729026397190983,
                    0.021660382202618032,
                    0.020094229406075595,
                    -0.0012828644951682871,
                    0.013264120221676995,
                    0.02072469362639992,
                    0.025169849955001607,
                    0.026004927268655737,
                    0.018035209583040224,
                    0.053549622276821605,
                    0.06456649735377158,
                    0.04605885506674993,
                    0.024229218370792747,
                    0.013789522758708532,
                    0.004739801922322647,
                    0.012396988806456411,
                    0.016119301397762995,
                    0.02270808787947117,
                    0.0053366663899623345,
                    0.018745196370492608,
                    0.01841249750986814,
                    0.015453594886411145,
                    0.0021,
                    0.0194,
                    0.0083,
                    0.0126,
                    0.005202404075021689,
                    0.00849712608010794,
                    0.0178852547975479,
                    0.006329858113753963,
                    0.027047295143148242,
                    0.026491245568564224,
                    0.020237420572945516,
                    0.025141650056062843,
                    0.026026816157466676,
                    0.01828811053724961,
                    0.03368223555851206,
                    0.04605063485365936,
                    0.03601251525094906,
                    0.018679093356054364,
                    0.018041408193588872,
                    0.005677160138677757,
                    0.008193983240933646,
                    0.016921992818380444,
                    0.015415608095933488,
                    0.017136533595908745,
                    0.02571003778780371,
                    0.008595519275950467,
                    0.008400000408126591,
                    0.0192,
                    0.0276,
                    0.0154,
                    0.0265,
                    0.0192,
                    0.0272,
                    0.014201654037902647,
                    0.023803554562774037,
                    0.01827980020944906,
                    0.028815546232803073,
                    0.021656284532663547,
                    0.02121661637415321,
                    0.011539688487334809,
                    0.006341841392252099,
                    0.027119007603885286,
                    0.021411830191578485,
                    0.015533838930914265,
                    0.030715301634616582,
                    0.012537505024548064,
                    0.02131377059455321,
                    0.0029940306549617753,
                    0.018541740791594482,
                    0.019209801480580657,
                    0.02658791019004478,
                    0.01458556640998895,
                    0.003011513194170668,
                    0.0184,
                    0.0171,
                    0.0224,
