{
    "input_layer": {
        "inputs": 9
    },
    "hidden_layers": [
        {
            "neurons": 16,
            "inputs": 9,
            "biases": [
                -2.472538404111379,
                -1.06601855999017,
                -0.1101139912115155,
                -0.46282556835880834,
                -1.336502027243411,
                -0.06388641932178034,
                -1.4314970593776073,
                -0.47894454474279075,
                -0.7111874200450193,
                -2.018279763671557,
                -2.5291417376908876,
                -1.0881993749720031,
                -3.9394836314729247,
                -0.32505288833923135,
                -1.0027032287215452,
                -1.3250256256133444
            ],
            "activation": "LeakyReLU",
            "weights": [
                [
                    0.975604881838264,
                    0.928237675800743,
                    -0.12252755375073937,
                    0.11731012942217542,
                    4.310057994665239,
                    -0.23146211772078554,
                    -0.07156168439060473,
                    -0.006584047132332134,
                    -0.2359693681045635
                ],
                [
                    0.4749550529968855,
                    0.23161214226562088,
                    0.32012519590366234,
                    0.08745987542045008,
                    -3.3539071139030954,
                    0.16693779222035698,
                    0.17895197542281918,
                    0.5842545959159535,
                    0.4632227488828547
                ],
                [
                    -0.06982082374946799,
                    0.15739755577655606,
                    1.781634922222871,
                    -0.33529803422583254,
                    -0.6153944769791463,
                    -1.081628557494456,
                    0.32104316403136157,
                    0.5800564214886844,
                    1.024026976486506
                ],
                [
                    -0.03876225726883196,
                    0.8704540246231428,
                    -0.7339153473035631,
                    -0.8417750408444951,
                    0.5422616069668995,
                    -0.7669787407239804,
                    1.8259358194192907,
                    0.907318485868237,
                    -1.7403885962789143
                ],
                [
                    0.6441004364702679,
                    -0.1691499276873743,
                    0.5018392304436463,
                    0.10764373532027552,
                    0.5866322601964241,
                    0.08635071558049297,
                    0.2752658706298987,
                    0.15672055792497766,
                    -3.000038817889095
                ],
                [
                    0.23645835337332,
                    0.08191728363299762,
                    -0.07470512137387414,
                    0.2707903781257655,
                    0.9601106347675205,
                    0.5583413250606215,
                    0.35052989938503865,
                    -0.49475038795550125,
                    2.1339782665975613
                ],
                [
                    0.5168443479175228,
                    0.508430763677902,
                    -3.252758816444133,
                    -0.34240509090133947,
                    0.29445274062069204,
                    -0.06044837424221021,
                    0.21525157699742484,
                    0.2595585802757194,
                    0.1443853744145121
                ],
                [
                    -0.8390694161275903,
                    1.606237214056308,
                    -0.3268093238666098,
                    -1.144911762939856,
                    0.969625922465952,
                    -0.4030363867695935,
                    -0.2422873384556551,
                    0.8461366696222491,
                    -0.41477745106923875
                ],
                [
                    -0.6226895498377025,
                    0.44740715369086925,
                    1.847819129475513,
                    -0.014451502576258476,
                    0.9280900787664418,
                    0.5655106612901292,
                    -1.9736008243126193,
                    -0.1310294895728471,
                    -0.4049982631551247
                ],
                [
                    -1.6061725114181238,
                    0.2464260098959058,
                    0.5788596129396326,
                    0.5273849650271067,
                    -2.897226529512231,
                    1.5453003773329212,
                    -1.1218935136334591,
                    0.1792740501203293,
                    -1.2180318239603707
                ],
                [
                    -2.1155232681940315,
                    0.41102692307869104,
                    0.9824661888854576,
                    0.7422149689857922,
                    -1.9072913223378105,
                    0.510206991647742,
                    1.414000211815811,
                    0.8246831881893374,
                    -2.0699367287035133
                ],
                [
                    0.4940482476514963,
                    0.4682817957611172,
                    -0.48871856694231286,
                    1.0807549125849152,
                    -1.2304171477257428,
                    -0.21874518449268313,
                    1.4663830332983039,
                    -1.1319769711349248,
                    -1.5609198954359187
                ],
                [
                    -0.12642415939793014,
                    -0.35480759843864135,
                    -0.3893806389332757,
                    1.534372266153847,
                    3.7910086914607506,
                    1.3688151270396045,
                    -0.23293555367702154,
                    0.13839012328156305,
                    0.0021296334964276548
                ],
                [
                    0.19107620356685956,
                    -0.8614593403383973,
                    0.6540701636277589,
                    1.6736549479093354,
                    -0.6186778153081797,
                    1.3451331064818657,
                    -0.6296000118586682,
                    -1.0124375898613456,
                    -0.15169922897465893
                ],
                [
                    -0.20337232587167067,
                    -0.5655465817399149,
                    1.2018901832993703,
                    -0.736014449773574,
                    -2.490591502681801,
                    -0.00220274826244918,
                    1.4517842056980408,
                    -0.5820451035054126,
                    0.06428393595846588
                ],
                [
                    0.6294893453667835,
                    0.5233662246377102,
                    0.607300666402368,
                    0.34034710549745345,
                    -0.049279474878445056,
                    0.22193553399958021,
                    -2.891283264362603,
                    0.6501177999788837,
                    -0.05506435604291752
                ]
            ],
            "alpha": 1
        },
        {
            "neurons": 8,
            "inputs": 16,
            "biases": [
                0.3036320499009631,
                -1.350956365307253,
                0.3164150217242173,
                -2.7651536953307896,
                -2.312511075114966,
                0.5040734986678277,
                -0.8749275762111929,
                1.5033654769243008
            ],
            "activation": "LeakyReLU",
            "weights": [
                [
                    -0.22009452492102347,
                    0.7405253040591812,
                    -0.08351970644051977,
                    -0.1741437436292461,
                    1.9160299226755166,
                    0.3279842762731206,
                    -0.40654947003377645,
                    0.9615179892809199,
                    -0.5017142251454024,
                    -0.5531814635377599,
                    -0.7493172131121411,
                    -0.28402291272401897,
                    0.038451233676110544,
                    0.2040812827121175,
                    0.5821513658460832,
                    0.7908529074434909
                ],
                [
                    0.10294998773126049,
                    0.7345725191211275,
                    -0.729879294515315,
                    0.9992753252272807,
                    -2.904230296125731,
                    -0.11493079747149207,
                    -0.33856290593600036,
                    0.19208630829360496,
                    0.45999462783169126,
                    1.6141161140414029,
                    1.5517065487747326,
                    -1.4115001880135443,
                    -0.8125825680330317,
                    -0.5524442864993193,
                    0.42181329379607785,
                    -0.5433031652631426
                ],
                [
                    -0.008092219393235733,
                    1.2969914049773925,
                    1.1176206408567684,
                    -1.5333225536751283,
                    1.816896888564265,
                    0.24200022426555123,
                    0.5463399983277686,
                    0.5977233210462953,
                    0.6610345678630489,
                    -0.29750513560199904,
                    0.03221512557824312,
                    0.8363742730023557,
                    0.7720747713436207,
                    -0.2714585283250744,
                    -1.753206257175808,
                    -2.715963929628489
                ],
                [
                    -0.38639391036762233,
                    -0.3692512263924881,
                    1.1860258422544656,
                    -0.14081084788309378,
                    0.2863769118943898,
                    1.0177695678317287,
                    0.5652211081344951,
                    0.05745949578858338,
                    1.1308175119414883,
                    0.5754834426249255,
                    1.7390911412144245,
                    0.9567116860884995,
                    1.0219787795670052,
                    -1.1169615132095279,
                    0.04007285563454785,
                    1.231054064952962
                ],
                [
                    0.6079017013544198,
                    0.4919247519607111,
                    0.8537344636757996,
                    0.687492142650122,
                    -0.44187054239945517,
                    -0.7253046950679392,
                    2.0459856472045166,
                    -0.7989402765949415,
                    0.43988071249962374,
                    0.08526977563755145,
                    -0.6415529379615524,
                    0.028643739321878026,
                    1.682971232754876,
                    0.43047449169775803,
                    0.6534969511096246,
                    -0.30297475868617574
                ],
                [
                    0.2757367865955233,
                    1.0406090885498804,
                    -0.2847718230231364,
                    1.362081592959332,
                    -0.1487383476859802,
                    1.0388342366118237,
                    -3.016307656804929,
                    -0.6981829433038945,
                    -0.423026234894782,
                    0.9490853021341303,
                    -0.3304024770345532,
                    0.8504574566426732,
                    2.501643662485669,
                    -1.296012476151521,
                    -0.2571240087612111,
                    1.9030393504805132
                ],
                [
                    1.5645929983037932,
                    1.2805953274036208,
                    -0.5043777429695716,
                    -0.09577407740124193,
                    -0.25421055832080997,
                    -0.24981115334436213,
                    -0.15826717061135953,
                    -1.0124690437245527,
                    1.180152047993137,
                    -1.436260301668219,
                    0.6252340547685982,
                    -2.0018583897885773,
                    -0.3231977947979804,
                    0.35885386096250416,
                    0.13928212995147932,
                    0.7763871953620256
                ],
                [
                    -3.968006896125614,
                    -5.377189056300722,
                    0.8590914984459065,
                    0.1348566866836339,
                    0.056449825534786974,
                    0.34393731171962266,
                    0.6226411126464165,
                    0.7144373702502191,
                    -0.6761033709847762,
                    0.3919216064779606,
                    0.5684468399475691,
                    -0.22758028049719514,
                    -0.8175479369847564,
                    0.7455461897711397,
                    0.8096260934908993,
                    0.6164709848691626
                ]
            ],
            "alpha": 1
        }
    ],
    "output_layer": {
        "neurons": 9,
        "inputs": 8,
        "biases": [
            4.9597706206833045,
            -0.4484049755959112,
            2.3524814912148537,
            -1.847525543475018,
            -0.08246268337282185,
            -4.54853039714976,
            0.9773996057457417,
            -2.3876312577467935,
            1.024903139696345
        ],
        "activation": "Softmax",
        "weights": [
            [
                -0.9219377912298962,
                0.5954499400173264,
                -0.09585846503268966,
                0.8443638129529485,
                -0.8913570660397538,
                0.07726197187142227,
                -0.9546168797949127,
                -1.2700357881907904
            ],
            [
                0.8226258592538279,
                -2.196649907919419,
                -0.7949013336473183,
                0.6070515676522752,
                0.16722092650531475,
                -0.15551259612295362,
                -0.19793699849818625,
                -0.5611713626488606
            ],
            [
                0.48817299224346383,
                0.3545363286700598,
                -0.05666766782506171,
                -0.8460190152292661,
                -1.4692130854707437,
                1.3742343153944443,
                0.10086312767940452,
                -0.4435997046969156
            ],
            [
                -0.11620966000095245,
                -1.8138667316275217,
                0.4935234811505808,
                0.63349207932023,
                0.6145219233609328,
                0.35633976298103176,
                -0.19958571021286367,
                -0.06616336564547501
            ],
            [
                -0.09331133676974165,
                0.5102287627450564,
                0.02705413506669474,
                0.34513773288771504,
                -0.3455417248805255,
                0.2683732136025782,
                -0.8398437194605883,
                1.6833455936818758
            ],
            [
                0.3340331644096318,
                -0.12827160802111665,
                0.052969373964672786,
                -0.19922403285025245,
                1.0340095264968898,
                0.3284975892261161,
                0.5789741952587771,
                0.6513599565793396
            ],
            [
                -0.2928143330578412,
                1.0848337392087537,
                1.4064462373460693,
                -1.0884806136358705,
                -0.008992132529402846,
                -1.1884381692921533,
                0.06933171110909056,
                -0.16959729625755318
            ],
            [
                0.9724024940043001,
                0.555455426271042,
                -0.15016728683331673,
                -0.08306596030879604,
                0.36881835539740015,
                -1.0125922099002902,
                0.6631350313580213,
                0.13338294352403976
            ],
            [
                -1.0680613888527881,
                1.1954840506559437,
                -0.7133984741896418,
                -0.02025557078904077,
                0.6670332771598464,
                0.07613612223976256,
                0.9016792425613176,
                0.23507902365436012
            ]
        ],
        "alpha": 1,
        "loss_type": "CategoricalCrossEntropy"
    }
}