{
    "input_layer": {
        "inputs": 9
    },
    "hidden_layers": [
        {
            "neurons": 24,
            "inputs": 9,
            "biases": [
                -0.42439847236304723,
                -1.2464416387383213,
                -1.1435354875993655,
                -1.2832847385964865,
                -2.168858923978496,
                -0.04919478539576992,
                -1.0360599005505895,
                -1.284609902984045,
                -1.4594646330533358,
                -1.0370792905179371,
                -2.565391515265541,
                -0.6382459728638796,
                -1.0170672464113628,
                -3.9998533546867305,
                -1.0322375307038265,
                -0.38894205551811795,
                -1.9236787740652495,
                -0.8819011547818935,
                -1.6543137904866463,
                -3.9660331083798996,
                -0.03232400271170659,
                -0.7938408804504485,
                -3.5319726399890317,
                -0.2509519859836945
            ],
            "activation": "LeakyReLU",
            "weights": [
                [
                    -0.32522830653808804,
                    1.3414702578928581,
                    0.5136397133273211,
                    -1.977674259687398,
                    -0.32357018155321593,
                    -1.4691742553093359,
                    -0.6398484078515099,
                    1.0614217841079367,
                    1.565623451354157
                ],
                [
                    -0.2154367395397359,
                    0.5593573904064,
                    1.5822022501902904,
                    -0.1316010868341172,
                    1.4268998516074871,
                    0.2541168866303558,
                    -2.887568716212997,
                    -0.06825465470076808,
                    -0.4461299787679217
                ],
                [
                    2.063760412411908,
                    1.1975344938003973,
                    1.2698307758220517,
                    -0.41105103197019965,
                    1.619993009794353,
                    -1.6760295466573278,
                    -0.1925333423102452,
                    -0.7298990580167519,
                    0.6370122624718947
                ],
                [
                    -0.059676530159569786,
                    0.2781873519971387,
                    -2.936184296181544,
                    0.1812392631596396,
                    1.589851843411155,
                    0.0531695687073351,
                    1.301568890281881,
                    0.10573547651660574,
                    -0.3302902102923673
                ],
                [
                    0.24114762939527573,
                    0.4810451359322867,
                    0.09915766978818807,
                    -0.2703652747808388,
                    0.8131316008183115,
                    0.2844718178559195,
                    1.0902124565100002,
                    -3.0440928803618386,
                    0.27460184780464525
                ],
                [
                    0.6503252599756035,
                    0.2940787872851972,
                    0.4696845813073123,
                    -0.14447132978698982,
                    0.09024235813951102,
                    2.2098918470461015,
                    -0.49199715002012795,
                    -0.7311343602343765,
                    -0.37193594892661425
                ],
                [
                    0.6757493445683559,
                    0.34138817118890663,
                    -0.5936832752502613,
                    0.15091728427413303,
                    2.0293625760571112,
                    -1.4224546831983402,
                    -0.45165816479798065,
                    -0.8243092653774857,
                    -2.0032505205256066
                ],
                [
                    3.7574298705753617,
                    -0.11503044029468767,
                    -0.47117051029600837,
                    -0.6965660966954481,
                    -0.33301847642253335,
                    -0.8019925516481605,
                    0.5665900044508155,
                    0.060366102024166965,
                    -0.5784682497892325
                ],
                [
                    0.17330067600394236,
                    0.5011725901781555,
                    1.3989758790392177,
                    -0.24428844679870407,
                    -3.8191200913580285,
                    0.2885377886828905,
                    -0.05633851759844059,
                    -0.6397941078015666,
                    -0.6360559945598248
                ],
                [
                    -3.027164774107297,
                    0.5804162693830015,
                    0.5601185962649409,
                    0.6028621060988036,
                    0.660920573763081,
                    0.5812173159761332,
                    0.09299076550666435,
                    0.5612974880906404,
                    0.8375246935368706
                ],
                [
                    2.1495807898277115,
                    -0.17654638708508802,
                    -0.09274006811987344,
                    2.2679426219585936,
                    -0.07545407434019813,
                    -0.6007345733019316,
                    2.9833052202181602,
                    0.14400118967946146,
                    -0.3131249890409377
                ],
                [
                    0.5815103895281256,
                    0.5791406463023095,
                    0.7292682106336236,
                    -0.6422216343557212,
                    0.2661435340379655,
                    -0.4501287324076548,
                    0.3308781942549324,
                    3.0103715199313794,
                    0.06152699787916046
                ],
                [
                    -0.8561729772553243,
                    1.103176794292943,
                    -0.8126936015231853,
                    1.1752860918827617,
                    -3.0796004267889736,
                    0.6944428362276442,
                    -1.59737783295168,
                    0.6243760941012968,
                    -1.549847226911542
                ],
                [
                    -1.5807289446223063,
                    0.4187917054751089,
                    -0.6293714932982022,
                    -1.3960931823202851,
                    0.9907174425705181,
                    0.3210463908450558,
                    -2.9899678894098947,
                    1.3678933282232848,
                    -0.0911096178081594
                ],
                [
                    0.9824464527998168,
                    0.769016760013614,
                    0.6849112751735134,
                    0.414979171275214,
                    0.662655436313037,
                    0.57535661785733,
                    0.21854588008233572,
                    0.796145038922934,
                    -3.3457023340431835
                ],
                [
                    -1.218231267810405,
                    -0.9582398414543372,
                    -0.17694082994953386,
                    -0.45310525171471205,
                    2.191144717989548,
                    -0.02060955165250399,
                    0.5024736516598586,
                    0.6560907935072502,
                    0.20225107698367262
                ],
                [
                    -0.025981948562968926,
                    0.22399356537125323,
                    -0.4242035041979123,
                    0.6159874764587975,
                    -4.106313146603584,
                    -0.20503427334276564,
                    -0.14460758299335708,
                    0.7069276035798,
                    -0.02813656416083117
                ],
                [
                    -0.8341815379050211,
                    -0.08197630514258993,
                    3.377865451353242,
                    -0.24842704169685645,
                    -0.10325044189767402,
                    -0.043111358479208106,
                    -0.908337829490769,
                    -0.6794060557396577,
                    -0.9527354796836917
                ],
                [
                    0.5605021284119063,
                    0.21919790195728725,
                    0.5019549561567512,
                    1.0332152323223178,
                    0.08036827414281877,
                    0.5255402367193356,
                    -3.2543974927565724,
                    0.3980099225603975,
                    0.33024068499568016
                ],
                [
                    0.07762617283805574,
                    -1.474248933830763,
                    -0.13304112355945225,
                    0.6959361566707477,
                    -3.5806713125158307,
                    0.17011332555618608,
                    0.34770477075368217,
                    -1.7651048777302962,
                    -0.46176940191659444
                ],
                [
                    -0.7440705091270687,
                    0.7921904015923009,
                    -0.05304926498881833,
                    -0.7891481035822295,
                    -0.16178709031468155,
                    -2.575563490278078,
                    -1.080004343456426,
                    0.18965602673026669,
                    -0.877840279693369
                ],
                [
                    0.1415014596084875,
                    -0.8564918258003217,
                    -3.164315257743988,
                    0.7917219569926061,
                    -0.38033334174165967,
                    1.0473073632153809,
                    -0.6129993109673217,
                    -1.1463861013158132,
                    -0.8376531395271167
                ],
                [
                    -2.6021407392478837,
                    0.8005082601313274,
                    1.3190469666849098,
                    -0.3216870588479884,
                    -2.8155163030006416,
                    0.2174853297041141,
                    1.1035487700039166,
                    0.7130681300355911,
                    -3.3870029004919986
                ],
                [
                    -0.532488664767553,
                    -0.8576201626176123,
                    -0.049275489777980144,
                    0.4169364347088299,
                    -0.0422739571966921,
                    0.6881573475162845,
                    2.9273023761626686,
                    -0.6023984812624188,
                    0.10553817557204112
                ]
            ],
            "alpha": 1
        },
        {
            "neurons": 12,
            "inputs": 24,
            "biases": [
                0.673298112053107,
                1.2598042697800578,
                -2.1949962739874387,
                -2.6127963732948416,
                -1.7779184500176086,
                -0.09655366842610269,
                -0.023122084353832027,
                -2.690619260591764,
                -0.03581484682996395,
                -3.729761043563978,
                0.7042971349409525,
                -0.8366923804526872
            ],
            "activation": "LeakyReLU",
            "weights": [
                [
                    -0.29145727461842447,
                    0.47367302529996547,
                    0.021953055207543478,
                    1.3454222909828917,
                    -2.0662344057595905,
                    -0.8503810318563623,
                    1.2433846529534227,
                    -0.24941411292038507,
                    0.5807806057080122,
                    1.1522372253632849,
                    -2.319568147717756,
                    -0.6559924306206274,
                    -0.5304474276608746,
                    -1.6698114552791627,
                    -0.24583803796815692,
                    -0.16947297525202404,
                    1.1343400156199555,
                    0.13300862530564822,
                    0.6882214254476166,
                    1.9757785094518483,
                    -1.7103865168450518,
                    -0.7427864426067623,
                    0.11794983134664436,
                    -0.019049682293613264
                ],
                [
                    -0.08067048411329247,
                    1.232599968886132,
                    0.8451855462162535,
                    1.1906835043081947,
                    0.5432745332180058,
                    -0.45767704249655544,
                    -0.13458875633647827,
                    -4.059563852906386,
                    0.9255990449152323,
                    -5.4909489541546845,
                    0.7009456306547439,
                    -0.523097948461577,
                    0.10924657970885335,
                    0.8855995500122159,
                    -0.09365861481469867,
                    1.0894775436763449,
                    1.2937283397305461,
                    -0.026799905631221255,
                    -0.3295570380721869,
                    0.4904924383443043,
                    -0.6308636192322005,
                    -0.15047688599911127,
                    1.0906566043786468,
                    -0.38619640183895315
                ],
                [
                    0.25691277349550007,
                    1.3749624562988103,
                    -0.889184859906194,
                    1.4220148041109018,
                    -0.14049239062896737,
                    -0.8908780982333806,
                    -0.95649957711351,
                    0.1466241227709756,
                    1.3687583531373984,
                    0.7325793064251419,
                    -0.0598635500556676,
                    -0.3423396340136143,
                    -2.2605740500121816,
                    0.8388532953831046,
                    1.5204716256793822,
                    -0.7104617095694135,
                    1.2677209301968912,
                    -0.09817776489117987,
                    0.4075048089583754,
                    0.42973028315222367,
                    0.30164310312081427,
                    0.9059360390681763,
                    -1.3055670230662557,
                    0.24601096297600625
                ],
                [
                    -2.052604243027602,
                    1.8759794621927721,
                    0.5207852744160877,
                    1.9586063569026049,
                    -0.8701656657001473,
                    0.7458372831373532,
                    1.1842558531299248,
                    -0.3575031273701697,
                    0.5717837500158147,
                    -1.0200298299530075,
                    0.8548442243434572,
                    1.6530397340160385,
                    0.07597331932987755,
                    -0.6892397946404909,
                    -4.9647716332268885,
                    -0.47204351874939865,
                    0.0788313913660597,
                    -0.09854230989345354,
                    -0.19411034684895456,
                    -0.6885936456970098,
                    0.2242987374127572,
                    -0.02471303266704471,
                    2.1476097087969435,
                    0.5008941278366658
                ],
                [
                    -0.04430355721700018,
                    -0.4066627002915532,
                    0.4035821197704656,
                    -0.20505559853203192,
                    0.9125642494833801,
                    0.371583072316755,
                    0.4190797435408544,
                    1.1646452074804383,
                    1.7294515245974023,
                    0.8345775864629473,
                    0.47689835305814765,
                    0.04793115525137123,
                    -0.13134047606453195,
                    -0.2235541714619062,
                    0.26027725466880164,
                    -0.010597968764518982,
                    0.7829041494216188,
                    -3.8385065316492035,
                    0.8997779774729318,
                    -1.7897451920377312,
                    -0.613250190318426,
                    -1.9981719215134146,
                    -0.5174723261110654,
                    -0.3722333801887211
                ],
                [
                    -1.6887254665745812,
                    0.258482515949892,
                    0.36100920804321573,
                    1.4856065400223746,
                    -0.829519294528861,
                    0.3860185332329357,
                    -0.29665591328669605,
                    0.0694762387764094,
                    0.6222826070351085,
                    -0.07403215821820366,
                    -0.07334656222957485,
                    0.6134333350306446,
                    -0.5616145229501651,
                    1.7262713165649501,
                    -2.9818101015235525,
                    -0.023143079997335714,
                    1.2493172170495996,
                    0.7570885434030472,
                    -1.6663041604126696,
                    0.495480795979097,
                    0.7243590315449748,
                    -0.35847880811633726,
                    0.08330716881171032,
                    -0.22977604855606726
                ],
                [
                    0.42445664391841614,
                    -0.3706565070331894,
                    -0.31714962578855266,
                    -0.5965994536156157,
                    1.1202614009895102,
                    -0.20127067719421177,
                    0.7169420908561773,
                    0.4115730516145216,
                    0.162261866401574,
                    0.7185369162015676,
                    0.7728262406565084,
                    0.42681043061532997,
                    -0.4159358306652396,
                    -0.04150475478968035,
                    0.33578640849959834,
                    0.8736048172509451,
                    1.9549461765398592,
                    1.1111824069649805,
                    -3.7093456259421775,
                    1.1462702943129996,
                    -1.210031816654647,
                    0.9017134877426503,
                    -1.0534442103787718,
                    -2.8512273832325135
                ],
                [
                    -0.2622941720927888,
                    0.22914482245465148,
                    -0.17025624848469928,
                    0.8233997906405744,
                    -0.2551315965238689,
                    0.8180194595574249,
                    -0.12123877171361667,
                    0.7131549866908967,
                    0.847305684701826,
                    -0.7309889677717986,
                    -2.3241885904147637,
                    0.3113404669550288,
                    -0.2818429971902657,
                    1.5899795450574459,
                    0.029876654133970303,
                    -0.21056671659060838,
                    -1.263112297516068,
                    0.01735970926807724,
                    0.21911412326576524,
                    2.335530679191445,
                    1.500410528195796,
                    -0.8282305920682476,
                    -0.798009070444297,
                    0.2189393421643715
                ],
                [
                    -2.1935239839533014,
                    -0.9038800762598843,
                    -0.4836151633803394,
                    -0.1790590805713334,
                    -0.01389566695187089,
                    -0.04871885179534791,
                    0.284634541784623,
                    -0.9904765727963395,
                    0.9008585107709125,
                    -0.08887219854418163,
                    -0.5280977425511981,
                    0.4014294587603408,
                    -0.6736849585792496,
                    0.7139490064007872,
                    0.8681182599365015,
                    1.1892945757938869,
                    0.7836755291831351,
                    -2.9033806717976165,
                    0.5334613727097731,
                    1.785012863045539,
                    1.086708810585463,
                    -0.7602584158760031,
                    -1.3801026320700003,
                    0.1992288487417978
                ],
                [
                    -0.2833257865740627,
                    0.5394241609962904,
                    1.0167648278221713,
                    -0.13759984601442665,
                    1.4908520849104514,
                    -0.1151507183593147,
                    0.6079301133214541,
                    -0.5507826894016855,
                    1.6815173249615927,
                    0.4779182861901476,
                    -0.7443916491051334,
                    1.3544327005570367,
                    -0.35781506351164566,
                    -0.22318905909326464,
                    -0.1631141980547247,
                    1.117353021066216,
                    1.3602525036578608,
                    -0.46728244432757526,
                    0.4285869106878,
                    -0.16664493123258795,
                    -0.9781240834820615,
                    0.6912462880961293,
                    -0.08830131892433703,
                    -0.16597910480431896
                ],
                [
                    0.19167178272598975,
                    0.20168567904378343,
                    0.9906109026230226,
                    -0.01578188947866364,
                    -0.5232148734172911,
                    1.358670362324534,
                    0.2166317518279236,
                    -0.782170281430935,
                    -0.2651713977721733,
                    0.19223636718139397,
                    0.25976914886690344,
                    -1.0432522458379654,
                    -0.5666966443350236,
                    0.04814844186948116,
                    0.5445320338395213,
                    0.8241497781864078,
                    2.915587989491422,
                    -0.6643205511772438,
                    -0.5385493330850909,
                    0.4261896259820411,
                    0.25104727543564376,
                    -0.5101675288773486,
                    -0.436746285093255,
                    -0.2575814936135745
                ],
                [
                    0.20883393017467078,
                    -1.645401174346498,
                    3.0384725788532956,
                    0.21449627021897888,
                    -0.15485464095526455,
                    0.45834127748783504,
                    -2.08572313888235,
                    -0.6514706932717288,
                    -0.5821020629033357,
                    0.056187553819132374,
                    1.359852542221885,
                    0.3466420370219567,
                    0.29112175885864483,
                    1.8839817078994296,
                    0.7189102548686163,
                    -0.08529556434233243,
                    -0.8550470256217636,
                    0.4186827769462438,
                    1.0323861571066433,
                    -0.0756008494691921,
                    -0.01747060249016934,
                    0.8710475892645052,
                    0.6682832727936328,
                    0.4649506941345789
                ]
            ],
            "alpha": 1
        }
    ],
    "output_layer": {
        "neurons": 9,
        "inputs": 12,
        "biases": [
            0.3889541504561728,
            -2.485848030026932,
            0.7767518072339368,
            -2.553410835195812,
            5.545843020514497,
            -1.4531674409478457,
            0.7574765896749703,
            -2.118891539576269,
            1.1422922778676003
        ],
        "activation": "Softmax",
        "weights": [
            [
                -0.34665762598980615,
                1.1954274121810364,
                -0.3123443486460227,
                0.14652386177919074,
                -0.47629654171170216,
                0.22945781544031565,
                -0.19067563937313026,
                0.09239567812290696,
                0.1668429626291762,
                0.10970313251069123,
                0.032510418007522676,
                0.4291017652684693
            ],
            [
                0.305297907837445,
                0.10293282701283811,
                0.47860659324320465,
                -0.3833047042652202,
                0.11518134255822206,
                0.2268082775264571,
                -0.030671056455918104,
                0.6534754146184575,
                0.7929316254233962,
                0.30600750762865364,
                -0.18965521268873828,
                0.20991072174859915
            ],
            [
                0.21414519750993483,
                -0.5025694627127454,
                -0.7133258649407761,
                0.22268116727836237,
                0.8986839109848415,
                -0.9701821021936489,
                -0.43733644989750686,
                0.47588653438105066,
                0.9396571907404112,
                0.45891283121132276,
                0.4430363076035192,
                0.03421889234757224
            ],
            [
                -1.29004455727125,
                0.18402603165804723,
                0.9740163887189871,
                -0.6996697287599957,
                -0.12578699596349993,
                0.49322247148239745,
                -0.012193670273372583,
                -1.1268787755363112,
                -0.4498872823888343,
                0.3477220339565614,
                0.5622396365601188,
                0.08069153307289934
            ],
            [
                -0.3381270253862049,
                -0.3136895735029032,
                -0.31345975981754837,
                0.1934958809513372,
                -0.15200589587906385,
                -0.3051839107333065,
                -0.10696337152008342,
                0.37264352742925977,
                -0.24163008276605444,
                -1.0271521720763508,
                -0.8374768114016673,
                0.9076920243350088
            ],
            [
                1.0436133889068036,
                0.34739941115419065,
                0.6666284928800644,
                -0.5619179035792286,
                0.4622001024191439,
                -0.3864013333661692,
                0.23641471070891984,
                -0.9339826795964653,
                -0.18164671054441428,
                0.5066630931152105,
                -0.988769139181254,
                -0.8846363386596166
            ],
            [
                -0.28242146208403546,
                -0.38031319126663504,
                -0.7478123559707667,
                0.4358572969995914,
                -0.7202477997070661,
                0.09669714254200268,
                1.3000298687745413,
                -0.26631177496698827,
                -0.5765025155203263,
                0.16572775004939966,
                0.47390193876384723,
                -0.1374557091183274
            ],
            [
                0.9315638973197995,
                -0.1754329972136422,
                0.592363596958741,
                -0.3912524116102606,
                -0.09867692737050647,
                0.04655325494027071,
                -0.313444740671757,
                0.43779145338970443,
                -0.03203966157415737,
                -1.1579662430792468,
                0.7176611726756271,
                0.09383870037846576
            ],
            [
                -0.09556972084268389,
                -0.348680457310185,
                -0.4846727424259915,
                1.2166865412063441,
                0.3049488046695976,
                0.7274283843616587,
                -0.32975965129158685,
                0.44578062215835695,
                -0.2628255259992416,
                0.40618206668371204,
                -0.05054831033903472,
                -0.6001615893729885
            ]
        ],
        "alpha": 1,
        "loss_type": "CategoricalCrossEntropy"
    }
}